{"learner":{"attributes":{"best_iteration":"499","best_ntree_limit":"500"},"feature_names":[],"feature_types":[],"gradient_booster":{"model":{"gbtree_model_param":{"num_parallel_tree":"1","num_trees":"1000","size_leaf_vector":"0"},"tree_info":[0,1,0,1,0,1,0,1,0,1,0,1,0,1,0,1,0,1,0,1,0,1,0,1,0,1,0,1,0,1,0,1,0,1,0,1,0,1,0,1,0,1,0,1,0,1,0,1,0,1,0,1,0,1,0,1,0,1,0,1,0,1,0,1,0,1,0,1,0,1,0,1,0,1,0,1,0,1,0,1,0,1,0,1,0,1,0,1,0,1,0,1,0,1,0,1,0,1,0,1,0,1,0,1,0,1,0,1,0,1,0,1,0,1,0,1,0,1,0,1,0,1,0,1,0,1,0,1,0,1,0,1,0,1,0,1,0,1,0,1,0,1,0,1,0,1,0,1,0,1,0,1,0,1,0,1,0,1,0,1,0,1,0,1,0,1,0,1,0,1,0,1,0,1,0,1,0,1,0,1,0,1,0,1,0,1,0,1,0,1,0,1,0,1,0,1,0,1,0,1,0,1,0,1,0,1,0,1,0,1,0,1,0,1,0,1,0,1,0,1,0,1,0,1,0,1,0,1,0,1,0,1,0,1,0,1,0,1,0,1,0,1,0,1,0,1,0,1,0,1,0,1,0,1,0,1,0,1,0,1,0,1,0,1,0,1,0,1,0,1,0,1,0,1,0,1,0,1,0,1,0,1,0,1,0,1,0,1,0,1,0,1,0,1,0,1,0,1,0,1,0,1,0,1,0,1,0,1,0,1,0,1,0,1,0,1,0,1,0,1,0,1,0,1,0,1,0,1,0,1,0,1,0,1,0,1,0,1,0,1,0,1,0,1,0,1,0,1,0,1,0,1,0,1,0,1,0,1,0,1,0,1,0,1,0,1,0,1,0,1,0,1,0,1,0,1,0,1,0,1,0,1,0,1,0,1,0,1,0,1,0,1,0,1,0,1,0,1,0,1,0,1,0,1,0,1,0,1,0,1,0,1,0,1,0,1,0,1,0,1,0,1,0,1,0,1,0,1,0,1,0,1,0,1,0,1,0,1,0,1,0,1,0,1,0,1,0,1,0,1,0,1,0,1,0,1,0,1,0,1,0,1,0,1,0,1,0,1,0,1,0,1,0,1,0,1,0,1,0,1,0,1,0,1,0,1,0,1,0,1,0,1,0,1,0,1,0,1,0,1,0,1,0,1,0,1,0,1,0,1,0,1,0,1,0,1,0,1,0,1,0,1,0,1,0,1,0,1,0,1,0,1,0,1,0,1,0,1,0,1,0,1,0,1,0,1,0,1,0,1,0,1,0,1,0,1,0,1,0,1,0,1,0,1,0,1,0,1,0,1,0,1,0,1,0,1,0,1,0,1,0,1,0,1,0,1,0,1,0,1,0,1,0,1,0,1,0,1,0,1,0,1,0,1,0,1,0,1,0,1,0,1,0,1,0,1,0,1,0,1,0,1,0,1,0,1,0,1,0,1,0,1,0,1,0,1,0,1,0,1,0,1,0,1,0,1,0,1,0,1,0,1,0,1,0,1,0,1,0,1,0,1,0,1,0,1,0,1,0,1,0,1,0,1,0,1,0,1,0,1,0,1,0,1,0,1,0,1,0,1,0,1,0,1,0,1,0,1,0,1,0,1,0,1,0,1,0,1,0,1,0,1,0,1,0,1,0,1,0,1,0,1,0,1,0,1,0,1,0,1,0,1,0,1,0,1,0,1,0,1,0,1,0,1,0,1,0,1,0,1,0,1,0,1,0,1,0,1,0,1,0,1,0,1,0,1,0,1,0,1,0,1,0,1,0,1,0,1,0,1,0,1,0,1,0,1,0,1,0,1,0,1,0,1,0,1,0,1,0,1,0,1,0,1,0,1,0,1,0,1,0,1,0,1,0,1,0,1,0,1,0,1,0,1,0,1,0,1,0,1,0,1,0,1,0,1,0,1,0,1,0,1,0,1,0,1,0,1,0,1,0,1,0,1,0,1,0,1,0,1,0,1,0,1,0,1,0,1,0,1,0,1,0,1,0,1,0,1,0,1,0,1,0,1,0,1,0,1,0,1,0,1,0,1,0,1,0,1,0,1,0,1,0,1,0,1,0,1,0,1,0,1,0,1,0,1,0,1,0,1,0,1,0,1,0,1,0,1,0,1,0,1,0,1,0,1,0,1,0,1,0,1,0,1,0,1,0,1,0,1,0,1,0,1,0,1,0,1,0,1,0,1,0,1,0,1,0,1,0,1,0,1,0,1,0,1,0,1,0,1,0,1,0,1,0,1,0,1,0,1,0,1,0,1,0,1,0,1,0,1],"trees":[{"base_weights":[-1.5057537E-1,1.3477151E-1,-3.053877E-1,-1.3728549E-1,2.4975255E-1,-1.3701236E-1,-4.94388E-1],"categories":[],"categories_nodes":[],"categories_segments":[],"categories_sizes":[],"default_left":[1,1,1,0,0,0,0],"id":0,"left_children":[1,3,5,-1,-1,-1,-1],"loss_changes":[2.7068066E2,6.7461334E1,1.2633319E2,0E0,0E0,0E0,0E0],"parents":[2147483647,0,0,1,1,2,2],"right_children":[2,4,6,-1,-1,-1,-1],"split_conditions":[4.45E-1,-2.45E0,1.35E1,-1.3728548E-3,2.4975254E-3,-1.3701236E-3,-4.9438803E-3],"split_indices":[3,77,80,0,0,0,0],"split_type":[0,0,0,0,0,0,0],"sum_hessian":[6.1255E3,2.1545E3,3.971E3,6.4E2,1.5145E3,2.101E3,1.87E3],"tree_param":{"num_deleted":"0","num_feature":"104","num_nodes":"7","size_leaf_vector":"0"}},{"base_weights":[1.5057537E-1,-1.3477151E-1,3.053877E-1,1.3728549E-1,-2.4975255E-1,1.3701236E-1,4.94388E-1],"categories":[],"categories_nodes":[],"categories_segments":[],"categories_sizes":[],"default_left":[1,1,1,0,0,0,0],"id":1,"left_children":[1,3,5,-1,-1,-1,-1],"loss_changes":[2.7068066E2,6.7461334E1,1.2633319E2,0E0,0E0,0E0,0E0],"parents":[2147483647,0,0,1,1,2,2],"right_children":[2,4,6,-1,-1,-1,-1],"split_conditions":[4.45E-1,-2.45E0,1.35E1,1.3728548E-3,-2.4975254E-3,1.3701236E-3,4.9438803E-3],"split_indices":[3,77,80,0,0,0,0],"split_type":[0,0,0,0,0,0,0],"sum_hessian":[6.1255E3,2.1545E3,3.971E3,6.4E2,1.5145E3,2.101E3,1.87E3],"tree_param":{"num_deleted":"0","num_feature":"104","num_nodes":"7","size_leaf_vector":"0"}},{"base_weights":[-1.4907196E-1,1.3342497E-1,-3.0233926E-1,-3.2334868E-2,3.1971252E-1,-1.356432E-1,-4.8945877E-1],"categories":[],"categories_nodes":[],"categories_segments":[],"categories_sizes":[],"default_left":[1,1,1,0,0,0,0],"id":2,"left_children":[1,3,5,-1,-1,-1,-1],"loss_changes":[2.6530005E2,6.656967E1,1.2382703E2,0E0,0E0,0E0,0E0],"parents":[2147483647,0,0,1,1,2,2],"right_children":[2,4,6,-1,-1,-1,-1],"split_conditions":[4.45E-1,5.135E-1,1.35E1,-3.2334868E-4,3.1971252E-3,-1.356432E-3,-4.8945877E-3],"split_indices":[3,55,80,0,0,0,0],"split_type":[0,0,0,0,0,0,0],"sum_hessian":[6.1254395E3,2.1544893E3,3.9709504E3,1.1404956E3,1.0139937E3,2.100996E3,1.8699543E3],"tree_param":{"num_deleted":"0","num_feature":"104","num_nodes":"7","size_leaf_vector":"0"}},{"base_weights":[1.490719E-1,-1.3342501E-1,3.0233917E-1,3.2334846E-2,-3.197126E-1,1.3564308E-1,4.8945877E-1],"categories":[],"categories_nodes":[],"categories_segments":[],"categories_sizes":[],"default_left":[1,1,1,0,0,0,0],"id":3,"left_children":[1,3,5,-1,-1,-1,-1],"loss_changes":[2.6530005E2,6.65697E1,1.2382712E2,0E0,0E0,0E0,0E0],"parents":[2147483647,0,0,1,1,2,2],"right_children":[2,4,6,-1,-1,-1,-1],"split_conditions":[4.45E-1,5.135E-1,1.35E1,3.2334845E-4,-3.197126E-3,1.3564308E-3,4.8945877E-3],"split_indices":[3,55,80,0,0,0,0],"split_type":[0,0,0,0,0,0,0],"sum_hessian":[6.1254395E3,2.1544893E3,3.9709504E3,1.1404956E3,1.01399365E3,2.100996E3,1.8699543E3],"tree_param":{"num_deleted":"0","num_feature":"104","num_nodes":"7","size_leaf_vector":"0"}},{"base_weights":[-1.47586E-1,1.3209368E-1,-2.9932857E-1,-1.3564731E-1,2.4525326E-1,-1.3428813E-1,-4.8460206E-1],"categories":[],"categories_nodes":[],"categories_segments":[],"categories_sizes":[],"default_left":[1,1,1,0,0,0,0],"id":4,"left_children":[1,3,5,-1,-1,-1,-1],"loss_changes":[2.6003412E2,6.5338326E1,1.2138321E2,0E0,0E0,0E0,0E0],"parents":[2147483647,0,0,1,1,2,2],"right_children":[2,4,6,-1,-1,-1,-1],"split_conditions":[4.45E-1,-2.45E0,1.35E1,-1.3564731E-3,2.4525325E-3,-1.3428812E-3,-4.8460206E-3],"split_indices":[3,77,80,0,0,0,0],"split_type":[0,0,0,0,0,0,0],"sum_hessian":[6.1252666E3,2.1544631E3,3.9708035E3,6.399981E2,1.5144651E3,2.1009844E3,1.8698188E3],"tree_param":{"num_deleted":"0","num_feature":"104","num_nodes":"7","size_leaf_vector":"0"}},{"base_weights":[1.4758596E-1,-1.3209368E-1,2.9932854E-1,1.3564722E-1,-2.4525324E-1,1.3428812E-1,4.8460194E-1],"categories":[],"categories_nodes":[],"categories_segments":[],"categories_sizes":[],"default_left":[1,1,1,0,0,0,0],"id":5,"left_children":[1,3,5,-1,-1,-1,-1],"loss_changes":[2.6003406E2,6.533827E1,1.2138312E2,0E0,0E0,0E0,0E0],"parents":[2147483647,0,0,1,1,2,2],"right_children":[2,4,6,-1,-1,-1,-1],"split_conditions":[4.45E-1,-2.45E0,1.35E1,1.3564721E-3,-2.4525323E-3,1.3428811E-3,4.846019E-3],"split_indices":[3,77,80,0,0,0,0],"split_type":[0,0,0,0,0,0,0],"sum_hessian":[6.1252666E3,2.1544631E3,3.9708032E3,6.3999817E2,1.5144651E3,2.1009844E3,1.869819E3],"tree_param":{"num_deleted":"0","num_feature":"104","num_nodes":"7","size_leaf_vector":"0"}},{"base_weights":[-1.4611788E-1,-3.5381603E-1,5.426004E-2,-1.9474061E-1,-5.1669735E-1,-2.4238047E-1,1.7524642E-1],"categories":[],"categories_nodes":[],"categories_segments":[],"categories_sizes":[],"default_left":[1,1,1,0,0,0,0],"id":6,"left_children":[1,3,5,-1,-1,-1,-1],"loss_changes":[2.549709E2,7.784253E1,1.1197459E2,0E0,0E0,0E0,0E0],"parents":[2147483647,0,0,1,1,2,2],"right_children":[2,4,6,-1,-1,-1,-1],"split_conditions":[1.45E1,1.25E1,-2.45E0,-1.9474061E-3,-5.1669735E-3,-2.4238047E-3,1.7524641E-3],"split_indices":[51,80,77,0,0,0,0],"split_type":[0,0,0,0,0,0,0],"sum_hessian":[6.1249785E3,3.0071772E3,3.1178015E3,1.5224734E3,1.4847037E3,9.029354E2,2.214866E3],"tree_param":{"num_deleted":"0","num_feature":"104","num_nodes":"7","size_leaf_vector":"0"}},{"base_weights":[1.4611791E-1,3.538161E-1,-5.4260034E-2,1.9474061E-1,5.1669747E-1,2.423805E-1,-1.7524642E-1],"categories":[],"categories_nodes":[],"categories_segments":[],"categories_sizes":[],"default_left":[1,1,1,0,0,0,0],"id":7,"left_children":[1,3,5,-1,-1,-1,-1],"loss_changes":[2.5497098E2,7.784259E1,1.1197458E2,0E0,0E0,0E0,0E0],"parents":[2147483647,0,0,1,1,2,2],"right_children":[2,4,6,-1,-1,-1,-1],"split_conditions":[1.45E1,1.25E1,-2.45E0,1.9474061E-3,5.1669744E-3,2.423805E-3,-1.7524641E-3],"split_indices":[51,80,77,0,0,0,0],"split_type":[0,0,0,0,0,0,0],"sum_hessian":[6.1249785E3,3.0071772E3,3.1178013E3,1.5224734E3,1.4847037E3,9.029354E2,2.214866E3],"tree_param":{"num_deleted":"0","num_feature":"104","num_nodes":"7","size_leaf_vector":"0"}},{"base_weights":[-1.4466603E-1,1.3040496E-1,-2.9392108E-1,-3.1651765E-2,3.1254146E-1,-5.5470824E-1,-1.7990655E-1],"categories":[],"categories_nodes":[],"categories_segments":[],"categories_sizes":[],"default_left":[1,1,1,0,0,0,0],"id":8,"left_children":[1,3,5,-1,-1,-1,-1],"loss_changes":[2.5153113E2,6.3628563E1,1.17980316E2,0E0,0E0,0E0,0E0],"parents":[2147483647,0,0,1,1,2,2],"right_children":[2,4,6,-1,-1,-1,-1],"split_conditions":[4.45E-1,5.135E-1,-1.75E0,-3.1651763E-4,3.1254145E-3,-5.5470825E-3,-1.7990654E-3],"split_indices":[3,55,77,0,0,0,0],"split_type":[0,0,0,0,0,0,0],"sum_hessian":[6.124643E3,2.1543638E3,3.9702793E3,1.1404604E3,1.01390344E3,1.2065815E3,2.7636978E3],"tree_param":{"num_deleted":"0","num_feature":"104","num_nodes":"7","size_leaf_vector":"0"}},{"base_weights":[1.44666E-1,-1.30405E-1,2.9392102E-1,3.165173E-2,-3.1254146E-1,5.547082E-1,1.7990655E-1],"categories":[],"categories_nodes":[],"categories_segments":[],"categories_sizes":[],"default_left":[1,1,1,0,0,0,0],"id":9,"left_children":[1,3,5,-1,-1,-1,-1],"loss_changes":[2.515311E2,6.3628567E1,1.17980316E2,0E0,0E0,0E0,0E0],"parents":[2147483647,0,0,1,1,2,2],"right_children":[2,4,6,-1,-1,-1,-1],"split_conditions":[4.45E-1,5.135E-1,-1.75E0,3.165173E-4,-3.1254145E-3,5.5470816E-3,1.7990654E-3],"split_indices":[3,55,77,0,0,0,0],"split_type":[0,0,0,0,0,0,0],"sum_hessian":[6.1246436E3,2.154364E3,3.9702795E3,1.1404604E3,1.0139035E3,1.2065815E3,2.763698E3],"tree_param":{"num_deleted":"0","num_feature":"104","num_nodes":"7","size_leaf_vector":"0"}},{"base_weights":[-1.4323069E-1,1.05963886E-1,-3.0482417E-1,-1.6040096E-1,2.1627979E-1,-1.4573018E-1,-4.8413113E-1],"categories":[],"categories_nodes":[],"categories_segments":[],"categories_sizes":[],"default_left":[1,1,1,0,0,0,0],"id":10,"left_children":[1,3,5,-1,-1,-1,-1],"loss_changes":[2.4668301E2,7.085776E1,1.0593329E2,0E0,0E0,0E0,0E0],"parents":[2147483647,0,0,1,1,2,2],"right_children":[2,4,6,-1,-1,-1,-1],"split_conditions":[4.6850002E-1,-2.45E0,1.35E1,-1.6040095E-3,2.1627978E-3,-1.4573018E-3,-4.8413114E-3],"split_indices":[3,77,80,0,0,0,0],"split_type":[0,0,0,0,0,0,0],"sum_hessian":[6.1241953E3,2.4092368E3,3.7149585E3,7.0544366E2,1.7037931E3,1.9693884E3,1.7455701E3],"tree_param":{"num_deleted":"0","num_feature":"104","num_nodes":"7","size_leaf_vector":"0"}},{"base_weights":[1.4323068E-1,-1.0596387E-1,3.0482414E-1,1.6040096E-1,-2.1627976E-1,1.457302E-1,4.8413107E-1],"categories":[],"categories_nodes":[],"categories_segments":[],"categories_sizes":[],"default_left":[1,1,1,0,0,0,0],"id":11,"left_children":[1,3,5,-1,-1,-1,-1],"loss_changes":[2.4668294E2,7.085775E1,1.0593329E2,0E0,0E0,0E0,0E0],"parents":[2147483647,0,0,1,1,2,2],"right_children":[2,4,6,-1,-1,-1,-1],"split_conditions":[4.6850002E-1,-2.45E0,1.35E1,1.6040095E-3,-2.1627976E-3,1.4573019E-3,4.8413104E-3],"split_indices":[3,77,80,0,0,0,0],"split_type":[0,0,0,0,0,0,0],"sum_hessian":[6.1241953E3,2.4092368E3,3.7149585E3,7.0544366E2,1.7037931E3,1.9693884E3,1.7455701E3],"tree_param":{"num_deleted":"0","num_feature":"104","num_nodes":"7","size_leaf_vector":"0"}},{"base_weights":[-1.418125E-1,-3.447059E-1,5.3892095E-2,-1.8968372E-1,-5.035165E-1,-2.3569205E-1,1.7198993E-1],"categories":[],"categories_nodes":[],"categories_segments":[],"categories_sizes":[],"default_left":[1,1,1,0,0,0,0],"id":12,"left_children":[1,3,5,-1,-1,-1,-1],"loss_changes":[2.4321046E2,7.393979E1,1.06687904E2,0E0,0E0,0E0,0E0],"parents":[2147483647,0,0,1,1,2,2],"right_children":[2,4,6,-1,-1,-1,-1],"split_conditions":[1.45E1,1.25E1,-2.45E0,-1.8968371E-3,-5.0351648E-3,-2.3569204E-3,1.7198992E-3],"split_indices":[51,80,77,0,0,0,0],"split_type":[0,0,0,0,0,0,0],"sum_hessian":[6.123634E3,3.0062224E3,3.1174114E3,1.5223661E3,1.4838562E3,9.0276733E2,2.214644E3],"tree_param":{"num_deleted":"0","num_feature":"104","num_nodes":"7","size_leaf_vector":"0"}},{"base_weights":[1.4181247E-1,3.447059E-1,-5.389212E-2,1.8968372E-1,5.035165E-1,2.3569205E-1,-1.7198998E-1],"categories":[],"categories_nodes":[],"categories_segments":[],"categories_sizes":[],"default_left":[1,1,1,0,0,0,0],"id":13,"left_children":[1,3,5,-1,-1,-1,-1],"loss_changes":[2.4321053E2,7.393979E1,1.0668793E2,0E0,0E0,0E0,0E0],"parents":[2147483647,0,0,1,1,2,2],"right_children":[2,4,6,-1,-1,-1,-1],"split_conditions":[1.45E1,1.25E1,-2.45E0,1.8968371E-3,5.0351648E-3,2.3569204E-3,-1.7198997E-3],"split_indices":[51,80,77,0,0,0,0],"split_type":[0,0,0,0,0,0,0],"sum_hessian":[6.123634E3,3.0062224E3,3.1174114E3,1.5223661E3,1.4838562E3,9.0276733E2,2.214644E3],"tree_param":{"num_deleted":"0","num_feature":"104","num_nodes":"7","size_leaf_vector":"0"}},{"base_weights":[-1.4040972E-1,1.276999E-1,-2.8592026E-1,-3.0736247E-2,3.0578813E-1,-5.410305E-1,-1.7445043E-1],"categories":[],"categories_nodes":[],"categories_segments":[],"categories_sizes":[],"default_left":[1,1,1,0,0,0,0],"id":14,"left_children":[1,3,5,-1,-1,-1,-1],"loss_changes":[2.3895169E2,6.081709E1,1.1279855E2,0E0,0E0,0E0,0E0],"parents":[2147483647,0,0,1,1,2,2],"right_children":[2,4,6,-1,-1,-1,-1],"split_conditions":[4.45E-1,5.135E-1,-1.75E0,-3.0736247E-4,3.0578813E-3,-5.410305E-3,-1.7445042E-3],"split_indices":[3,55,77,0,0,0,0],"split_type":[0,0,0,0,0,0,0],"sum_hessian":[6.1230244E3,2.1541077E3,3.9689167E3,1.1403887E3,1.013719E3,1.205698E3,2.7632185E3],"tree_param":{"num_deleted":"0","num_feature":"104","num_nodes":"7","size_leaf_vector":"0"}},{"base_weights":[1.4040977E-1,-1.2769982E-1,2.859203E-1,3.0736309E-2,-3.0578804E-1,5.410305E-1,1.7445047E-1],"categories":[],"categories_nodes":[],"categories_segments":[],"categories_sizes":[],"default_left":[1,1,1,0,0,0,0],"id":15,"left_children":[1,3,5,-1,-1,-1,-1],"loss_changes":[2.3895163E2,6.0817074E1,1.1279849E2,0E0,0E0,0E0,0E0],"parents":[2147483647,0,0,1,1,2,2],"right_children":[2,4,6,-1,-1,-1,-1],"split_conditions":[4.45E-1,5.135E-1,-1.75E0,3.0736308E-4,-3.0578803E-3,5.410305E-3,1.7445047E-3],"split_indices":[3,55,77,0,0,0,0],"split_type":[0,0,0,0,0,0,0],"sum_hessian":[6.1230244E3,2.1541077E3,3.9689165E3,1.1403887E3,1.01371906E3,1.2056981E3,2.7632185E3],"tree_param":{"num_deleted":"0","num_feature":"104","num_nodes":"7","size_leaf_vector":"0"}},{"base_weights":[-1.3902278E-1,-3.3862004E-1,5.346084E-2,-4.1399878E-1,-1.807944E-2,-2.3150842E-1,1.696653E-1],"categories":[],"categories_nodes":[],"categories_segments":[],"categories_sizes":[],"default_left":[1,1,1,0,0,0,0],"id":16,"left_children":[1,3,5,-1,-1,-1,-1],"loss_changes":[2.3527078E2,7.262921E1,1.0329313E2,0E0,0E0,0E0,0E0],"parents":[2147483647,0,0,1,1,2,2],"right_children":[2,4,6,-1,-1,-1,-1],"split_conditions":[1.45E1,5.05E0,-2.45E0,-4.1399878E-3,-1.8079439E-4,-2.3150842E-3,1.6966531E-3],"split_indices":[51,77,77,0,0,0,0],"split_type":[0,0,0,0,0,0,0],"sum_hessian":[6.12231E3,3.005243E3,3.1170671E3,2.432841E3,5.724018E2,9.0260596E2,2.2144612E3],"tree_param":{"num_deleted":"0","num_feature":"104","num_nodes":"7","size_leaf_vector":"0"}},{"base_weights":[1.3902278E-1,3.3862004E-1,-5.3460848E-2,4.139988E-1,1.8079443E-2,2.315084E-1,-1.696653E-1],"categories":[],"categories_nodes":[],"categories_segments":[],"categories_sizes":[],"default_left":[1,1,1,0,0,0,0],"id":17,"left_children":[1,3,5,-1,-1,-1,-1],"loss_changes":[2.3527075E2,7.262924E1,1.0329311E2,0E0,0E0,0E0,0E0],"parents":[2147483647,0,0,1,1,2,2],"right_children":[2,4,6,-1,-1,-1,-1],"split_conditions":[1.45E1,5.05E0,-2.45E0,4.139988E-3,1.8079442E-4,2.315084E-3,-1.6966531E-3],"split_indices":[51,77,77,0,0,0,0],"split_type":[0,0,0,0,0,0,0],"sum_hessian":[6.1223096E3,3.005243E3,3.117067E3,2.432841E3,5.724018E2,9.026059E2,2.2144612E3],"tree_param":{"num_deleted":"0","num_feature":"104","num_nodes":"7","size_leaf_vector":"0"}},{"base_weights":[-1.3764991E-1,1.332199E-1,-2.770408E-1,-1.185588E-1,2.4049999E-1,-9.860035E-2,-4.319005E-1],"categories":[],"categories_nodes":[],"categories_segments":[],"categories_sizes":[],"default_left":[1,1,1,0,0,0,0],"id":18,"left_children":[1,3,5,-1,-1,-1,-1],"loss_changes":[2.3120593E2,5.6235237E1,1.1166995E2,0E0,0E0,0E0,0E0],"parents":[2147483647,0,0,1,1,2,2],"right_children":[2,4,6,-1,-1,-1,-1],"split_conditions":[4.395E-1,-2.45E0,1.15E1,-1.185588E-3,2.405E-3,-9.860034E-4,-4.3190047E-3],"split_indices":[3,77,80,0,0,0,0],"split_type":[0,0,0,0,0,0,0],"sum_hessian":[6.1215825E3,2.0798948E3,4.0416877E3,6.2140247E2,1.4584922E3,1.878631E3,2.163057E3],"tree_param":{"num_deleted":"0","num_feature":"104","num_nodes":"7","size_leaf_vector":"0"}},{"base_weights":[1.3764992E-1,-1.3321991E-1,2.7704084E-1,1.1855877E-1,-2.4049999E-1,9.860043E-2,4.3190047E-1],"categories":[],"categories_nodes":[],"categories_segments":[],"categories_sizes":[],"default_left":[1,1,1,0,0,0,0],"id":19,"left_children":[1,3,5,-1,-1,-1,-1],"loss_changes":[2.3120596E2,5.6235226E1,1.1166989E2,0E0,0E0,0E0,0E0],"parents":[2147483647,0,0,1,1,2,2],"right_children":[2,4,6,-1,-1,-1,-1],"split_conditions":[4.395E-1,-2.45E0,1.15E1,1.1855877E-3,-2.405E-3,9.860042E-4,4.3190047E-3],"split_indices":[3,77,80,0,0,0,0],"split_type":[0,0,0,0,0,0,0],"sum_hessian":[6.1215825E3,2.0798948E3,4.0416877E3,6.2140247E2,1.4584922E3,1.878631E3,2.163057E3],"tree_param":{"num_deleted":"0","num_feature":"104","num_nodes":"7","size_leaf_vector":"0"}},{"base_weights":[-1.3629408E-1,-3.327055E-1,5.30687E-2,-4.0699345E-1,-1.6945472E-2,-2.2705223E-1,1.672841E-1],"categories":[],"categories_nodes":[],"categories_segments":[],"categories_sizes":[],"default_left":[1,1,1,0,0,0,0],"id":20,"left_children":[1,3,5,-1,-1,-1,-1],"loss_changes":[2.2770187E2,7.0483215E1,9.978397E1,0E0,0E0,0E0,0E0],"parents":[2147483647,0,0,1,1,2,2],"right_children":[2,4,6,-1,-1,-1,-1],"split_conditions":[1.45E1,5.05E0,-2.45E0,-4.0699346E-3,-1.6945471E-4,-2.2705223E-3,1.672841E-3],"split_indices":[51,77,77,0,0,0,0],"split_type":[0,0,0,0,0,0,0],"sum_hessian":[6.1206934E3,3.0040583E3,3.1166353E3,2.431676E3,5.7238226E2,9.024147E2,2.2142205E3],"tree_param":{"num_deleted":"0","num_feature":"104","num_nodes":"7","size_leaf_vector":"0"}},{"base_weights":[1.362941E-1,3.327055E-1,-5.3068686E-2,4.0699345E-1,1.694547E-2,2.2705221E-1,-1.6728407E-1],"categories":[],"categories_nodes":[],"categories_segments":[],"categories_sizes":[],"default_left":[1,1,1,0,0,0,0],"id":21,"left_children":[1,3,5,-1,-1,-1,-1],"loss_changes":[2.2770184E2,7.0483246E1,9.978395E1,0E0,0E0,0E0,0E0],"parents":[2147483647,0,0,1,1,2,2],"right_children":[2,4,6,-1,-1,-1,-1],"split_conditions":[1.45E1,5.05E0,-2.45E0,4.0699346E-3,1.694547E-4,2.270522E-3,-1.6728407E-3],"split_indices":[51,77,77,0,0,0,0],"split_type":[0,0,0,0,0,0,0],"sum_hessian":[6.1206934E3,3.0040583E3,3.116635E3,2.431676E3,5.7238226E2,9.024146E2,2.2142205E3],"tree_param":{"num_deleted":"0","num_feature":"104","num_nodes":"7","size_leaf_vector":"0"}},{"base_weights":[-1.3495184E-1,1.245206E-1,-2.7583542E-1,-2.9385684E-2,2.9755238E-1,-5.251863E-1,-1.669926E-1],"categories":[],"categories_nodes":[],"categories_segments":[],"categories_sizes":[],"default_left":[1,1,1,0,0,0,0],"id":22,"left_children":[1,3,5,-1,-1,-1,-1],"loss_changes":[2.2378275E2,5.7386475E1,1.075831E2,0E0,0E0,0E0,0E0],"parents":[2147483647,0,0,1,1,2,2],"right_children":[2,4,6,-1,-1,-1,-1],"split_conditions":[4.45E-1,5.135E-1,-1.75E0,-2.9385684E-4,2.9755237E-3,-5.251863E-3,-1.669926E-3],"split_indices":[3,55,77,0,0,0,0],"split_type":[0,0,0,0,0,0,0],"sum_hessian":[6.119801E3,2.153573E3,3.966228E3,1.1402166E3,1.0133564E3,1.2040388E3,2.7621892E3],"tree_param":{"num_deleted":"0","num_feature":"104","num_nodes":"7","size_leaf_vector":"0"}},{"base_weights":[1.3495184E-1,-1.2452061E-1,2.7583545E-1,2.9385649E-2,-2.9755235E-1,5.251863E-1,1.669926E-1],"categories":[],"categories_nodes":[],"categories_segments":[],"categories_sizes":[],"default_left":[1,1,1,0,0,0,0],"id":23,"left_children":[1,3,5,-1,-1,-1,-1],"loss_changes":[2.2378275E2,5.7386456E1,1.0758307E2,0E0,0E0,0E0,0E0],"parents":[2147483647,0,0,1,1,2,2],"right_children":[2,4,6,-1,-1,-1,-1],"split_conditions":[4.45E-1,5.135E-1,-1.75E0,2.938565E-4,-2.9755235E-3,5.251863E-3,1.669926E-3],"split_indices":[3,55,77,0,0,0,0],"split_type":[0,0,0,0,0,0,0],"sum_hessian":[6.119801E3,2.1535728E3,3.966228E3,1.1402166E3,1.0133563E3,1.204039E3,2.762189E3],"tree_param":{"num_deleted":"0","num_feature":"104","num_nodes":"7","size_leaf_vector":"0"}},{"base_weights":[-1.3362555E-1,-3.2687995E-1,5.263581E-2,-4.002443E-1,-1.5207444E-2,-2.2303084E-1,1.6501898E-1],"categories":[],"categories_nodes":[],"categories_segments":[],"categories_sizes":[],"default_left":[1,1,1,0,0,0,0],"id":24,"left_children":[1,3,5,-1,-1,-1,-1],"loss_changes":[2.203038E2,6.8674286E1,9.660652E1,0E0,0E0,0E0,0E0],"parents":[2147483647,0,0,1,1,2,2],"right_children":[2,4,6,-1,-1,-1,-1],"split_conditions":[1.45E1,5.05E0,-2.45E0,-4.002443E-3,-1.5207444E-4,-2.2303083E-3,1.6501897E-3],"split_indices":[51,77,77,0,0,0,0],"split_type":[0,0,0,0,0,0,0],"sum_hessian":[6.1187817E3,3.0026475E3,3.116134E3,2.4302974E3,5.7235004E2,9.0217896E2,2.213955E3],"tree_param":{"num_deleted":"0","num_feature":"104","num_nodes":"7","size_leaf_vector":"0"}},{"base_weights":[1.3362554E-1,3.2687992E-1,-5.2635834E-2,4.002443E-1,1.520733E-2,2.2303079E-1,-1.6501899E-1],"categories":[],"categories_nodes":[],"categories_segments":[],"categories_sizes":[],"default_left":[1,1,1,0,0,0,0],"id":25,"left_children":[1,3,5,-1,-1,-1,-1],"loss_changes":[2.203038E2,6.867432E1,9.660651E1,0E0,0E0,0E0,0E0],"parents":[2147483647,0,0,1,1,2,2],"right_children":[2,4,6,-1,-1,-1,-1],"split_conditions":[1.45E1,5.05E0,-2.45E0,4.002443E-3,1.5207329E-4,2.2303078E-3,-1.6501899E-3],"split_indices":[51,77,77,0,0,0,0],"split_type":[0,0,0,0,0,0,0],"sum_hessian":[6.1187812E3,3.0026475E3,3.116134E3,2.4302974E3,5.7235004E2,9.0217896E2,2.213955E3],"tree_param":{"num_deleted":"0","num_feature":"104","num_nodes":"7","size_leaf_vector":"0"}},{"base_weights":[-1.3231291E-1,-2.557722E-1,1.5539336E-1,-1.0359922E-1,-4.2843658E-1,1.2800177E-3,3.2863334E-1],"categories":[],"categories_nodes":[],"categories_segments":[],"categories_sizes":[],"default_left":[1,1,1,0,0,0,0],"id":26,"left_children":[1,3,5,-1,-1,-1,-1],"loss_changes":[2.1737735E2,1.1246091E2,4.9068233E1,0E0,0E0,0E0,0E0],"parents":[2147483647,0,0,1,1,2,2],"right_children":[2,4,6,-1,-1,-1,-1],"split_conditions":[1.95E1,1.35E1,5.135E-1,-1.0359922E-3,-4.2843656E-3,1.2800177E-5,3.2863333E-3],"split_indices":[28,80,55,0,0,0,0],"split_type":[0,0,0,0,0,0,0],"sum_hessian":[6.1177363E3,4.2808623E3,1.8368744E3,2.2763042E3,2.004558E3,9.726328E2,8.642416E2],"tree_param":{"num_deleted":"0","num_feature":"104","num_nodes":"7","size_leaf_vector":"0"}},{"base_weights":[1.3231295E-1,2.5577226E-1,-1.5539335E-1,1.0359927E-1,4.284366E-1,-1.2799852E-3,-3.2863334E-1],"categories":[],"categories_nodes":[],"categories_segments":[],"categories_sizes":[],"default_left":[1,1,1,0,0,0,0],"id":27,"left_children":[1,3,5,-1,-1,-1,-1],"loss_changes":[2.1737735E2,1.1246091E2,4.906824E1,0E0,0E0,0E0,0E0],"parents":[2147483647,0,0,1,1,2,2],"right_children":[2,4,6,-1,-1,-1,-1],"split_conditions":[1.95E1,1.35E1,5.135E-1,1.0359928E-3,4.284366E-3,-1.2799852E-5,-3.2863333E-3],"split_indices":[28,80,55,0,0,0,0],"split_type":[0,0,0,0,0,0,0],"sum_hessian":[6.1177363E3,4.2808623E3,1.8368743E3,2.2763042E3,2.004558E3,9.7263275E2,8.642416E2],"tree_param":{"num_deleted":"0","num_feature":"104","num_nodes":"7","size_leaf_vector":"0"}},{"base_weights":[-1.3101438E-1,-3.2131055E-1,5.232874E-2,-3.936829E-1,-1.40437195E-2,-2.1918672E-1,1.6300437E-1],"categories":[],"categories_nodes":[],"categories_segments":[],"categories_sizes":[],"default_left":[1,1,1,0,0,0,0],"id":28,"left_children":[1,3,5,-1,-1,-1,-1],"loss_changes":[2.134574E2,6.675244E1,9.368971E1,0E0,0E0,0E0,0E0],"parents":[2147483647,0,0,1,1,2,2],"right_children":[2,4,6,-1,-1,-1,-1],"split_conditions":[1.45E1,5.05E0,-2.45E0,-3.936829E-3,-1.4043719E-4,-2.1918672E-3,1.6300436E-3],"split_indices":[51,77,77,0,0,0,0],"split_type":[0,0,0,0,0,0,0],"sum_hessian":[6.1166177E3,3.0010276E3,3.1155903E3,2.4287004E3,5.72327E2,9.019347E2,2.2136555E3],"tree_param":{"num_deleted":"0","num_feature":"104","num_nodes":"7","size_leaf_vector":"0"}},{"base_weights":[1.3101436E-1,3.2131052E-1,-5.232872E-2,3.9368284E-1,1.4043637E-2,2.1918672E-1,-1.6300434E-1],"categories":[],"categories_nodes":[],"categories_segments":[],"categories_sizes":[],"default_left":[1,1,1,0,0,0,0],"id":29,"left_children":[1,3,5,-1,-1,-1,-1],"loss_changes":[2.1345734E2,6.675244E1,9.368971E1,0E0,0E0,0E0,0E0],"parents":[2147483647,0,0,1,1,2,2],"right_children":[2,4,6,-1,-1,-1,-1],"split_conditions":[1.45E1,5.05E0,-2.45E0,3.936828E-3,1.4043636E-4,2.1918672E-3,-1.6300434E-3],"split_indices":[51,77,77,0,0,0,0],"split_type":[0,0,0,0,0,0,0],"sum_hessian":[6.1166177E3,3.0010276E3,3.1155903E3,2.4287004E3,5.723271E2,9.019347E2,2.2136555E3],"tree_param":{"num_deleted":"0","num_feature":"104","num_nodes":"7","size_leaf_vector":"0"}},{"base_weights":[-1.2973045E-1,-2.512872E-1,1.5346454E-1,-1.01232186E-1,-4.2165992E-1,1.8284455E-3,3.2395762E-1],"categories":[],"categories_nodes":[],"categories_segments":[],"categories_sizes":[],"default_left":[1,1,1,0,0,0,0],"id":30,"left_children":[1,3,5,-1,-1,-1,-1],"loss_changes":[2.1059216E2,1.09374115E2,4.7504982E1,0E0,0E0,0E0,0E0],"parents":[2147483647,0,0,1,1,2,2],"right_children":[2,4,6,-1,-1,-1,-1],"split_conditions":[1.95E1,1.35E1,5.135E-1,-1.0123218E-3,-4.2165993E-3,1.8284454E-5,3.2395762E-3],"split_indices":[28,80,55,0,0,0,0],"split_type":[0,0,0,0,0,0,0],"sum_hessian":[6.1154307E3,4.2788975E3,1.8365332E3,2.2759548E3,2.0029427E3,9.725556E2,8.639776E2],"tree_param":{"num_deleted":"0","num_feature":"104","num_nodes":"7","size_leaf_vector":"0"}},{"base_weights":[1.2973046E-1,2.5128722E-1,-1.5346453E-1,1.0123221E-1,4.2165995E-1,-1.8284448E-3,-3.2395762E-1],"categories":[],"categories_nodes":[],"categories_segments":[],"categories_sizes":[],"default_left":[1,1,1,0,0,0,0],"id":31,"left_children":[1,3,5,-1,-1,-1,-1],"loss_changes":[2.105922E2,1.09374084E2,4.750498E1,0E0,0E0,0E0,0E0],"parents":[2147483647,0,0,1,1,2,2],"right_children":[2,4,6,-1,-1,-1,-1],"split_conditions":[1.95E1,1.35E1,5.135E-1,1.012322E-3,4.2165993E-3,-1.8284447E-5,-3.2395762E-3],"split_indices":[28,80,55,0,0,0,0],"split_type":[0,0,0,0,0,0,0],"sum_hessian":[6.1154307E3,4.2788975E3,1.8365332E3,2.2759548E3,2.0029427E3,9.725556E2,8.6397754E2],"tree_param":{"num_deleted":"0","num_feature":"104","num_nodes":"7","size_leaf_vector":"0"}},{"base_weights":[-1.2846014E-1,9.986241E-2,-2.7672812E-1,-1.8559517E-1,1.8626206E-1,-4.0991446E-1,-9.071386E-2],"categories":[],"categories_nodes":[],"categories_segments":[],"categories_sizes":[],"default_left":[1,1,1,0,0,0,0],"id":32,"left_children":[1,3,5,-1,-1,-1,-1],"loss_changes":[2.0704419E2,5.943271E1,9.182254E1,0E0,0E0,0E0,0E0],"parents":[2147483647,0,0,1,1,2,2],"right_children":[2,4,6,-1,-1,-1,-1],"split_conditions":[4.6850002E-1,3.705E-1,1.55E0,-1.8559516E-3,1.8626205E-3,-4.0991446E-3,-9.071386E-4],"split_indices":[3,55,77,0,0,0,0],"split_type":[0,0,0,0,0,0,0],"sum_hessian":[6.1141743E3,2.4073484E3,3.706826E3,5.590717E2,1.8482767E3,2.1594526E3,1.5473733E3],"tree_param":{"num_deleted":"0","num_feature":"104","num_nodes":"7","size_leaf_vector":"0"}},{"base_weights":[1.2846015E-1,-9.9862374E-2,2.767281E-1,1.8559526E-1,-1.8626203E-1,4.0991443E-1,9.0713836E-2],"categories":[],"categories_nodes":[],"categories_segments":[],"categories_sizes":[],"default_left":[1,1,1,0,0,0,0],"id":33,"left_children":[1,3,5,-1,-1,-1,-1],"loss_changes":[2.070441E2,5.943274E1,9.182254E1,0E0,0E0,0E0,0E0],"parents":[2147483647,0,0,1,1,2,2],"right_children":[2,4,6,-1,-1,-1,-1],"split_conditions":[4.6850002E-1,3.705E-1,1.55E0,1.8559525E-3,-1.8626202E-3,4.099144E-3,9.0713834E-4],"split_indices":[3,55,77,0,0,0,0],"split_type":[0,0,0,0,0,0,0],"sum_hessian":[6.1141743E3,2.4073484E3,3.706826E3,5.590717E2,1.8482767E3,2.1594526E3,1.5473733E3],"tree_param":{"num_deleted":"0","num_feature":"104","num_nodes":"7","size_leaf_vector":"0"}},{"base_weights":[-1.2720402E-1,-3.1336713E-1,5.20475E-2,-3.843994E-1,-1.2108671E-2,-1.9829586E-1,1.671822E-1],"categories":[],"categories_nodes":[],"categories_segments":[],"categories_sizes":[],"default_left":[1,1,1,0,0,0,0],"id":34,"left_children":[1,3,5,-1,-1,-1,-1],"loss_changes":[2.0403601E2,6.4176544E1,8.983498E1,0E0,0E0,0E0,0E0],"parents":[2147483647,0,0,1,1,2,2],"right_children":[2,4,6,-1,-1,-1,-1],"split_conditions":[1.45E1,5.05E0,-2.05E0,-3.843994E-3,-1.21086705E-4,-1.9829585E-3,1.671822E-3],"split_indices":[51,77,77,0,0,0,0],"split_type":[0,0,0,0,0,0,0],"sum_hessian":[6.112862E3,2.9982532E3,3.1146084E3,2.4259697E3,5.722836E2,9.809518E2,2.1336565E3],"tree_param":{"num_deleted":"0","num_feature":"104","num_nodes":"7","size_leaf_vector":"0"}},{"base_weights":[1.2720402E-1,3.1336713E-1,-5.2047487E-2,3.843994E-1,1.2108587E-2,1.9829585E-1,-1.6718218E-1],"categories":[],"categories_nodes":[],"categories_segments":[],"categories_sizes":[],"default_left":[1,1,1,0,0,0,0],"id":35,"left_children":[1,3,5,-1,-1,-1,-1],"loss_changes":[2.0403598E2,6.4176636E1,8.983496E1,0E0,0E0,0E0,0E0],"parents":[2147483647,0,0,1,1,2,2],"right_children":[2,4,6,-1,-1,-1,-1],"split_conditions":[1.45E1,5.05E0,-2.05E0,3.843994E-3,1.2108587E-4,1.9829585E-3,-1.6718217E-3],"split_indices":[51,77,77,0,0,0,0],"split_type":[0,0,0,0,0,0,0],"sum_hessian":[6.112862E3,2.9982532E3,3.1146084E3,2.4259695E3,5.722837E2,9.809518E2,2.1336565E3],"tree_param":{"num_deleted":"0","num_feature":"104","num_nodes":"7","size_leaf_vector":"0"}},{"base_weights":[-1.2596127E-1,-2.4004953E-1,1.629284E-1,-9.069616E-2,-4.052953E-1,2.4257034E-1,-1.3462144E-1],"categories":[],"categories_nodes":[],"categories_segments":[],"categories_sizes":[],"default_left":[1,1,1,0,0,0,0],"id":36,"left_children":[1,3,5,-1,-1,-1,-1],"loss_changes":[2.0150018E2,1.0812016E2,4.1055798E1,0E0,0E0,0E0,0E0],"parents":[2147483647,0,0,1,1,2,2],"right_children":[2,4,6,-1,-1,-1,-1],"split_conditions":[2.15E1,1.35E1,2.35E1,-9.069616E-4,-4.052953E-3,2.4257035E-3,-1.3462144E-3],"split_indices":[51,80,81,0,0,0,0],"split_type":[0,0,0,0,0,0,0],"sum_hessian":[6.11149E3,4.3813696E3,1.7301205E3,2.302164E3,2.0792058E3,1.3649609E3,3.6515955E2],"tree_param":{"num_deleted":"0","num_feature":"104","num_nodes":"7","size_leaf_vector":"0"}},{"base_weights":[1.2596127E-1,2.4004953E-1,-1.6292843E-1,9.069617E-2,4.052953E-1,-2.4257037E-1,1.3462143E-1],"categories":[],"categories_nodes":[],"categories_segments":[],"categories_sizes":[],"default_left":[1,1,1,0,0,0,0],"id":37,"left_children":[1,3,5,-1,-1,-1,-1],"loss_changes":[2.0150018E2,1.0812019E2,4.1055786E1,0E0,0E0,0E0,0E0],"parents":[2147483647,0,0,1,1,2,2],"right_children":[2,4,6,-1,-1,-1,-1],"split_conditions":[2.15E1,1.35E1,2.35E1,9.069617E-4,4.052953E-3,-2.4257037E-3,1.3462142E-3],"split_indices":[51,80,81,0,0,0,0],"split_type":[0,0,0,0,0,0,0],"sum_hessian":[6.11149E3,4.38137E3,1.7301205E3,2.302164E3,2.0792058E3,1.3649609E3,3.6515955E2],"tree_param":{"num_deleted":"0","num_feature":"104","num_nodes":"7","size_leaf_vector":"0"}},{"base_weights":[-1.24730654E-1,-2.4266447E-1,1.4984275E-1,-9.707971E-2,-4.0822786E-1,2.2515035E-3,3.158613E-1],"categories":[],"categories_nodes":[],"categories_segments":[],"categories_sizes":[],"default_left":[1,1,1,0,0,0,0],"id":38,"left_children":[1,3,5,-1,-1,-1,-1],"loss_changes":[1.9792342E2,1.0301094E2,4.500574E1,0E0,0E0,0E0,0E0],"parents":[2147483647,0,0,1,1,2,2],"right_children":[2,4,6,-1,-1,-1,-1],"split_conditions":[1.95E1,1.35E1,5.135E-1,-9.707971E-4,-4.0822783E-3,2.2515034E-5,3.158613E-3],"split_indices":[28,80,55,0,0,0,0],"split_type":[0,0,0,0,0,0,0],"sum_hessian":[6.1101167E3,4.2743354E3,1.8357815E3,2.275238E3,1.9990974E3,9.7236145E2,8.6342004E2],"tree_param":{"num_deleted":"0","num_feature":"104","num_nodes":"7","size_leaf_vector":"0"}},{"base_weights":[1.2473066E-1,2.4266447E-1,-1.4984272E-1,9.707969E-2,4.082279E-1,-2.2514518E-3,-3.158613E-1],"categories":[],"categories_nodes":[],"categories_segments":[],"categories_sizes":[],"default_left":[1,1,1,0,0,0,0],"id":39,"left_children":[1,3,5,-1,-1,-1,-1],"loss_changes":[1.9792337E2,1.03011E2,4.500576E1,0E0,0E0,0E0,0E0],"parents":[2147483647,0,0,1,1,2,2],"right_children":[2,4,6,-1,-1,-1,-1],"split_conditions":[1.95E1,1.35E1,5.135E-1,9.7079686E-4,4.082279E-3,-2.2514518E-5,-3.158613E-3],"split_indices":[28,80,55,0,0,0,0],"split_type":[0,0,0,0,0,0,0],"sum_hessian":[6.1101167E3,4.2743354E3,1.8357815E3,2.275238E3,1.9990973E3,9.7236145E2,8.6342004E2],"tree_param":{"num_deleted":"0","num_feature":"104","num_nodes":"7","size_leaf_vector":"0"}},{"base_weights":[-1.2351447E-1,-3.0584478E-1,5.192596E-2,-3.75657E-1,-1.01157315E-2,-2.0850252E-1,1.5803094E-1],"categories":[],"categories_nodes":[],"categories_segments":[],"categories_sizes":[],"default_left":[1,1,1,0,0,0,0],"id":40,"left_children":[1,3,5,-1,-1,-1,-1],"loss_changes":[1.9545071E2,6.18526E1,8.609485E1,0E0,0E0,0E0,0E0],"parents":[2147483647,0,0,1,1,2,2],"right_children":[2,4,6,-1,-1,-1,-1],"split_conditions":[1.45E1,5.05E0,-2.45E0,-3.75657E-3,-1.0115731E-4,-2.0850252E-3,1.5803094E-3],"split_indices":[51,77,77,0,0,0,0],"split_type":[0,0,0,0,0,0,0],"sum_hessian":[6.108609E3,2.9951206E3,3.113488E3,2.4228845E3,5.722362E2,9.010207E2,2.2124675E3],"tree_param":{"num_deleted":"0","num_feature":"104","num_nodes":"7","size_leaf_vector":"0"}},{"base_weights":[1.23514496E-1,3.058448E-1,-5.1925935E-2,3.7565702E-1,1.01157315E-2,2.0850247E-1,-1.580309E-1],"categories":[],"categories_nodes":[],"categories_segments":[],"categories_sizes":[],"default_left":[1,1,1,0,0,0,0],"id":41,"left_children":[1,3,5,-1,-1,-1,-1],"loss_changes":[1.9545071E2,6.185263E1,8.609481E1,0E0,0E0,0E0,0E0],"parents":[2147483647,0,0,1,1,2,2],"right_children":[2,4,6,-1,-1,-1,-1],"split_conditions":[1.45E1,5.05E0,-2.45E0,3.7565702E-3,1.0115731E-4,2.0850247E-3,-1.5803089E-3],"split_indices":[51,77,77,0,0,0,0],"split_type":[0,0,0,0,0,0,0],"sum_hessian":[6.108609E3,2.9951206E3,3.113488E3,2.4228845E3,5.722362E2,9.010207E2,2.2124675E3],"tree_param":{"num_deleted":"0","num_feature":"104","num_nodes":"7","size_leaf_vector":"0"}},{"base_weights":[-1.2231143E-1,-2.3382713E-1,1.5991798E-1,-6.758165E-2,-3.7619883E-1,2.3777764E-1,-1.3093953E-1],"categories":[],"categories_nodes":[],"categories_segments":[],"categories_sizes":[],"default_left":[1,1,1,0,0,0,0],"id":42,"left_children":[1,3,5,-1,-1,-1,-1],"loss_changes":[1.9227643E2,1.0360904E2,3.9220303E1,0E0,0E0,0E0,0E0],"parents":[2147483647,0,0,1,1,2,2],"right_children":[2,4,6,-1,-1,-1,-1],"split_conditions":[2.15E1,1.15E1,2.35E1,-6.758165E-4,-3.7619881E-3,2.3777762E-3,-1.3093953E-3],"split_indices":[51,80,81,0,0,0,0],"split_type":[0,0,0,0,0,0,0],"sum_hessian":[6.1070605E3,4.377554E3,1.7295065E3,2.0201398E3,2.3574143E3,1.3644415E3,3.650649E2],"tree_param":{"num_deleted":"0","num_feature":"104","num_nodes":"7","size_leaf_vector":"0"}},{"base_weights":[1.2231144E-1,2.3382716E-1,-1.5991801E-1,6.758169E-2,3.7619886E-1,-2.3777765E-1,1.3093945E-1],"categories":[],"categories_nodes":[],"categories_segments":[],"categories_sizes":[],"default_left":[1,1,1,0,0,0,0],"id":43,"left_children":[1,3,5,-1,-1,-1,-1],"loss_changes":[1.922765E2,1.0360907E2,3.9220295E1,0E0,0E0,0E0,0E0],"parents":[2147483647,0,0,1,1,2,2],"right_children":[2,4,6,-1,-1,-1,-1],"split_conditions":[2.15E1,1.15E1,2.35E1,6.758169E-4,3.7619886E-3,-2.3777764E-3,1.3093945E-3],"split_indices":[51,80,81,0,0,0,0],"split_type":[0,0,0,0,0,0,0],"sum_hessian":[6.1070605E3,4.377554E3,1.7295065E3,2.0201396E3,2.3574143E3,1.3644415E3,3.6506494E2],"tree_param":{"num_deleted":"0","num_feature":"104","num_nodes":"7","size_leaf_vector":"0"}},{"base_weights":[-1.2111956E-1,-3.0072665E-1,5.160674E-2,-3.6958492E-1,-9.308198E-3,-1.6807579E-1,1.7380291E-1],"categories":[],"categories_nodes":[],"categories_segments":[],"categories_sizes":[],"default_left":[1,1,1,0,0,0,0],"id":44,"left_children":[1,3,5,-1,-1,-1,-1],"loss_changes":[1.8945758E2,6.0071533E1,8.361574E1,0E0,0E0,0E0,0E0],"parents":[2147483647,0,0,1,1,2,2],"right_children":[2,4,6,-1,-1,-1,-1],"split_conditions":[1.45E1,5.05E0,-1.45E0,-3.695849E-3,-9.308197E-5,-1.6807579E-3,1.7380291E-3],"split_indices":[51,77,77,0,0,0,0],"split_type":[0,0,0,0,0,0,0],"sum_hessian":[6.1055293E3,2.9927834E3,3.112746E3,2.4205674E3,5.7221594E2,1.1124407E3,2.0003053E3],"tree_param":{"num_deleted":"0","num_feature":"104","num_nodes":"7","size_leaf_vector":"0"}},{"base_weights":[1.2111957E-1,3.0072668E-1,-5.160673E-2,3.6958498E-1,9.308195E-3,1.680758E-1,-1.738029E-1],"categories":[],"categories_nodes":[],"categories_segments":[],"categories_sizes":[],"default_left":[1,1,1,0,0,0,0],"id":45,"left_children":[1,3,5,-1,-1,-1,-1],"loss_changes":[1.8945761E2,6.0071503E1,8.361573E1,0E0,0E0,0E0,0E0],"parents":[2147483647,0,0,1,1,2,2],"right_children":[2,4,6,-1,-1,-1,-1],"split_conditions":[1.45E1,5.05E0,-1.45E0,3.6958498E-3,9.3081944E-5,1.680758E-3,-1.738029E-3],"split_indices":[51,77,77,0,0,0,0],"split_type":[0,0,0,0,0,0,0],"sum_hessian":[6.1055293E3,2.9927832E3,3.112746E3,2.4205674E3,5.7221594E2,1.1124407E3,2.0003054E3],"tree_param":{"num_deleted":"0","num_feature":"104","num_nodes":"7","size_leaf_vector":"0"}},{"base_weights":[-1.1994175E-1,1.2366976E-1,-2.45602E-1,-1.389881E-1,2.071803E-1,-4.8028338E-1,-1.4361948E-1],"categories":[],"categories_nodes":[],"categories_segments":[],"categories_sizes":[],"default_left":[1,1,1,0,0,0,0],"id":46,"left_children":[1,3,5,-1,-1,-1,-1],"loss_changes":[1.8691475E2,4.5611477E1,9.6329346E1,0E0,0E0,0E0,0E0],"parents":[2147483647,0,0,1,1,2,2],"right_children":[2,4,6,-1,-1,-1,-1],"split_conditions":[4.395E-1,3.725E-1,-1.75E0,-1.389881E-3,2.071803E-3,-4.802834E-3,-1.4361948E-3],"split_indices":[3,55,77,0,0,0,0],"split_type":[0,0,0,0,0,0,0],"sum_hessian":[6.103882E3,2.077108E3,4.0267737E3,5.0092657E2,1.5761814E3,1.2186702E3,2.8081035E3],"tree_param":{"num_deleted":"0","num_feature":"104","num_nodes":"7","size_leaf_vector":"0"}},{"base_weights":[1.1994176E-1,-1.2366973E-1,2.4560201E-1,1.3898812E-1,-2.0718028E-1,4.8028347E-1,1.4361946E-1],"categories":[],"categories_nodes":[],"categories_segments":[],"categories_sizes":[],"default_left":[1,1,1,0,0,0,0],"id":47,"left_children":[1,3,5,-1,-1,-1,-1],"loss_changes":[1.8691476E2,4.561148E1,9.632939E1,0E0,0E0,0E0,0E0],"parents":[2147483647,0,0,1,1,2,2],"right_children":[2,4,6,-1,-1,-1,-1],"split_conditions":[4.395E-1,3.725E-1,-1.75E0,1.3898812E-3,-2.0718027E-3,4.8028347E-3,1.4361946E-3],"split_indices":[3,55,77,0,0,0,0],"split_type":[0,0,0,0,0,0,0],"sum_hessian":[6.103882E3,2.077108E3,4.0267737E3,5.0092657E2,1.5761814E3,1.2186702E3,2.8081035E3],"tree_param":{"num_deleted":"0","num_feature":"104","num_nodes":"7","size_leaf_vector":"0"}},{"base_weights":[-1.1877701E-1,-2.3252831E-1,1.4580584E-1,-9.164127E-2,-3.9310706E-1,3.0993596E-3,3.064266E-1],"categories":[],"categories_nodes":[],"categories_segments":[],"categories_sizes":[],"default_left":[1,1,1,0,0,0,0],"id":48,"left_children":[1,3,5,-1,-1,-1,-1],"loss_changes":[1.8371884E2,9.653342E1,4.2074337E1,0E0,0E0,0E0,0E0],"parents":[2147483647,0,0,1,1,2,2],"right_children":[2,4,6,-1,-1,-1,-1],"split_conditions":[1.95E1,1.35E1,5.135E-1,-9.164127E-4,-3.9310707E-3,3.0993597E-5,3.0642662E-3],"split_indices":[28,80,55,0,0,0,0],"split_type":[0,0,0,0,0,0,0],"sum_hessian":[6.102169E3,4.267553E3,1.8346155E3,2.2739912E3,1.9935623E3,9.72023E2,8.6259247E2],"tree_param":{"num_deleted":"0","num_feature":"104","num_nodes":"7","size_leaf_vector":"0"}},{"base_weights":[1.1877702E-1,2.3252833E-1,-1.458058E-1,9.164128E-2,3.9310706E-1,-3.0993589E-3,-3.0642653E-1],"categories":[],"categories_nodes":[],"categories_segments":[],"categories_sizes":[],"default_left":[1,1,1,0,0,0,0],"id":49,"left_children":[1,3,5,-1,-1,-1,-1],"loss_changes":[1.8371881E2,9.65334E1,4.2074314E1,0E0,0E0,0E0,0E0],"parents":[2147483647,0,0,1,1,2,2],"right_children":[2,4,6,-1,-1,-1,-1],"split_conditions":[1.95E1,1.35E1,5.135E-1,9.1641274E-4,3.9310707E-3,-3.099359E-5,-3.0642652E-3],"split_indices":[28,80,55,0,0,0,0],"split_type":[0,0,0,0,0,0,0],"sum_hessian":[6.102169E3,4.267553E3,1.8346155E3,2.2739912E3,1.9935623E3,9.7202295E2,8.6259247E2],"tree_param":{"num_deleted":"0","num_feature":"104","num_nodes":"7","size_leaf_vector":"0"}},{"base_weights":[-1.1762408E-1,-2.9346594E-1,5.134608E-2,-3.612604E-1,-6.954837E-3,-9.509945E-2,2.274911E-1],"categories":[],"categories_nodes":[],"categories_segments":[],"categories_sizes":[],"default_left":[1,1,1,0,0,0,0],"id":50,"left_children":[1,3,5,-1,-1,-1,-1],"loss_changes":[1.8129993E2,5.8075806E1,8.030662E1,0E0,0E0,0E0,0E0],"parents":[2147483647,0,0,1,1,2,2],"right_children":[2,4,6,-1,-1,-1,-1],"split_conditions":[1.45E1,5.05E0,5.245E-1,-3.612604E-3,-6.954837E-5,-9.509945E-4,2.274911E-3],"split_indices":[51,77,55,0,0,0,0],"split_type":[0,0,0,0,0,0,0],"sum_hessian":[6.100396E3,2.98905E3,3.111346E3,2.4169004E3,5.721496E2,1.6991482E3,1.4121978E3],"tree_param":{"num_deleted":"0","num_feature":"104","num_nodes":"7","size_leaf_vector":"0"}},{"base_weights":[1.176241E-1,2.9346594E-1,-5.1346064E-2,3.6126038E-1,6.9549507E-3,9.509945E-2,-2.2749107E-1],"categories":[],"categories_nodes":[],"categories_segments":[],"categories_sizes":[],"default_left":[1,1,1,0,0,0,0],"id":51,"left_children":[1,3,5,-1,-1,-1,-1],"loss_changes":[1.8129991E2,5.8075775E1,8.03066E1,0E0,0E0,0E0,0E0],"parents":[2147483647,0,0,1,1,2,2],"right_children":[2,4,6,-1,-1,-1,-1],"split_conditions":[1.45E1,5.05E0,5.245E-1,3.6126038E-3,6.9549504E-5,9.509945E-4,-2.2749107E-3],"split_indices":[51,77,55,0,0,0,0],"split_type":[0,0,0,0,0,0,0],"sum_hessian":[6.100396E3,2.98905E3,3.111346E3,2.4169004E3,5.721496E2,1.6991482E3,1.4121978E3],"tree_param":{"num_deleted":"0","num_feature":"104","num_nodes":"7","size_leaf_vector":"0"}},{"base_weights":[-1.1648235E-1,-2.2410853E-1,1.5562715E-1,-6.32215E-2,-3.6217973E-1,2.308024E-1,-1.2513699E-1],"categories":[],"categories_nodes":[],"categories_segments":[],"categories_sizes":[],"default_left":[1,1,1,0,0,0,0],"id":52,"left_children":[1,3,5,-1,-1,-1,-1],"loss_changes":[1.786693E2,9.7079636E1,3.652988E1,0E0,0E0,0E0,0E0],"parents":[2147483647,0,0,1,1,2,2],"right_children":[2,4,6,-1,-1,-1,-1],"split_conditions":[2.15E1,1.15E1,2.35E1,-6.32215E-4,-3.621797E-3,2.3080239E-3,-1.2513698E-3],"split_indices":[51,80,81,0,0,0,0],"split_type":[0,0,0,0,0,0,0],"sum_hessian":[6.0986294E3,4.3702583E3,1.7283713E3,2.019038E3,2.3512202E3,1.3634756E3,3.6489575E2],"tree_param":{"num_deleted":"0","num_feature":"104","num_nodes":"7","size_leaf_vector":"0"}},{"base_weights":[1.16482355E-1,2.2410853E-1,-1.5562713E-1,6.322151E-2,3.6217973E-1,-2.3080237E-1,1.2513699E-1],"categories":[],"categories_nodes":[],"categories_segments":[],"categories_sizes":[],"default_left":[1,1,1,0,0,0,0],"id":53,"left_children":[1,3,5,-1,-1,-1,-1],"loss_changes":[1.7866925E2,9.7079636E1,3.6529877E1,0E0,0E0,0E0,0E0],"parents":[2147483647,0,0,1,1,2,2],"right_children":[2,4,6,-1,-1,-1,-1],"split_conditions":[2.15E1,1.15E1,2.35E1,6.3221506E-4,3.621797E-3,-2.3080236E-3,1.2513698E-3],"split_indices":[51,80,81,0,0,0,0],"split_type":[0,0,0,0,0,0,0],"sum_hessian":[6.0986294E3,4.3702583E3,1.7283713E3,2.0190381E3,2.3512202E3,1.3634756E3,3.6489575E2],"tree_param":{"num_deleted":"0","num_feature":"104","num_nodes":"7","size_leaf_vector":"0"}},{"base_weights":[-1.1535214E-1,-2.8859574E-1,5.1014487E-2,-3.5548323E-1,-6.2233694E-3,-1.973288E-1,1.5212986E-1],"categories":[],"categories_nodes":[],"categories_segments":[],"categories_sizes":[],"default_left":[1,1,1,0,0,0,0],"id":54,"left_children":[1,3,5,-1,-1,-1,-1],"loss_changes":[1.7576662E2,5.6420044E1,7.816422E1,0E0,0E0,0E0,0E0],"parents":[2147483647,0,0,1,1,2,2],"right_children":[2,4,6,-1,-1,-1,-1],"split_conditions":[1.45E1,5.05E0,-2.45E0,-3.5548322E-3,-6.2233696E-5,-1.973288E-3,1.5212985E-3],"split_indices":[51,77,77,0,0,0,0],"split_type":[0,0,0,0,0,0,0],"sum_hessian":[6.0968467E3,2.986334E3,3.1105127E3,2.4142058E3,5.721284E2,8.9974713E2,2.2107656E3],"tree_param":{"num_deleted":"0","num_feature":"104","num_nodes":"7","size_leaf_vector":"0"}},{"base_weights":[1.15352154E-1,2.8859577E-1,-5.1014487E-2,3.5548326E-1,6.22337E-3,1.9732884E-1,-1.5212986E-1],"categories":[],"categories_nodes":[],"categories_segments":[],"categories_sizes":[],"default_left":[1,1,1,0,0,0,0],"id":55,"left_children":[1,3,5,-1,-1,-1,-1],"loss_changes":[1.7576663E2,5.6420074E1,7.816424E1,0E0,0E0,0E0,0E0],"parents":[2147483647,0,0,1,1,2,2],"right_children":[2,4,6,-1,-1,-1,-1],"split_conditions":[1.45E1,5.05E0,-2.45E0,3.5548327E-3,6.2233696E-5,1.9732884E-3,-1.5212985E-3],"split_indices":[51,77,77,0,0,0,0],"split_type":[0,0,0,0,0,0,0],"sum_hessian":[6.0968467E3,2.986334E3,3.1105127E3,2.4142058E3,5.721284E2,8.9974713E2,2.2107656E3],"tree_param":{"num_deleted":"0","num_feature":"104","num_nodes":"7","size_leaf_vector":"0"}},{"base_weights":[-1.14235446E-1,-2.248767E-1,1.42888E-1,-8.775777E-2,-3.8147038E-1,-1.4069857E-1,2.1902348E-1],"categories":[],"categories_nodes":[],"categories_segments":[],"categories_sizes":[],"default_left":[1,1,1,0,0,0,0],"id":56,"left_children":[1,3,5,-1,-1,-1,-1],"loss_changes":[1.7345227E2,9.148811E1,3.964087E1,0E0,0E0,0E0,0E0],"parents":[2147483647,0,0,1,1,2,2],"right_children":[2,4,6,-1,-1,-1,-1],"split_conditions":[1.95E1,1.35E1,3.585E-1,-8.775777E-4,-3.8147038E-3,-1.4069857E-3,2.1902348E-3],"split_indices":[28,80,55,0,0,0,0],"split_type":[0,0,0,0,0,0,0],"sum_hessian":[6.094941E3,4.261378E3,1.8335629E3,2.2727974E3,1.9885807E3,3.878957E2,1.4456671E3],"tree_param":{"num_deleted":"0","num_feature":"104","num_nodes":"7","size_leaf_vector":"0"}},{"base_weights":[1.1423545E-1,2.2487673E-1,-1.4288802E-1,8.77578E-2,3.814704E-1,1.4069863E-1,-2.1902353E-1],"categories":[],"categories_nodes":[],"categories_segments":[],"categories_sizes":[],"default_left":[1,1,1,0,0,0,0],"id":57,"left_children":[1,3,5,-1,-1,-1,-1],"loss_changes":[1.734523E2,9.1488144E1,3.964089E1,0E0,0E0,0E0,0E0],"parents":[2147483647,0,0,1,1,2,2],"right_children":[2,4,6,-1,-1,-1,-1],"split_conditions":[1.95E1,1.35E1,3.585E-1,8.7757804E-4,3.814704E-3,1.4069863E-3,-2.1902353E-3],"split_indices":[28,80,55,0,0,0,0],"split_type":[0,0,0,0,0,0,0],"sum_hessian":[6.094941E3,4.261378E3,1.8335627E3,2.2727974E3,1.9885807E3,3.878957E2,1.4456671E3],"tree_param":{"num_deleted":"0","num_feature":"104","num_nodes":"7","size_leaf_vector":"0"}},{"base_weights":[-1.13130294E-1,9.416386E-2,-2.4814814E-1,-4.163164E-2,2.4550824E-1,-3.71767E-1,-7.6471634E-2],"categories":[],"categories_nodes":[],"categories_segments":[],"categories_sizes":[],"default_left":[1,1,1,0,0,0,0],"id":58,"left_children":[1,3,5,-1,-1,-1,-1],"loss_changes":[1.705846E2,4.9424652E1,7.829555E1,0E0,0E0,0E0,0E0],"parents":[2147483647,0,0,1,1,2,2],"right_children":[2,4,6,-1,-1,-1,-1],"split_conditions":[4.6850002E-1,5.135E-1,1.55E0,-4.1631638E-4,2.4550823E-3,-3.71767E-3,-7.647163E-4],"split_indices":[3,55,77,0,0,0,0],"split_type":[0,0,0,0,0,0,0],"sum_hessian":[6.0929946E3,2.4033743E3,3.68962E3,1.2671417E3,1.1362327E3,2.144365E3,1.5452552E3],"tree_param":{"num_deleted":"0","num_feature":"104","num_nodes":"7","size_leaf_vector":"0"}},{"base_weights":[1.13130316E-1,-9.4163835E-2,2.4814817E-1,4.1631654E-2,-2.455082E-1,3.7176704E-1,7.6471634E-2],"categories":[],"categories_nodes":[],"categories_segments":[],"categories_sizes":[],"default_left":[1,1,1,0,0,0,0],"id":59,"left_children":[1,3,5,-1,-1,-1,-1],"loss_changes":[1.705846E2,4.9424637E1,7.829556E1,0E0,0E0,0E0,0E0],"parents":[2147483647,0,0,1,1,2,2],"right_children":[2,4,6,-1,-1,-1,-1],"split_conditions":[4.6850002E-1,5.135E-1,1.55E0,4.1631653E-4,-2.4550818E-3,3.7176704E-3,7.647163E-4],"split_indices":[3,55,77,0,0,0,0],"split_type":[0,0,0,0,0,0,0],"sum_hessian":[6.0929946E3,2.4033743E3,3.68962E3,1.2671416E3,1.1362327E3,2.144365E3,1.5452552E3],"tree_param":{"num_deleted":"0","num_feature":"104","num_nodes":"7","size_leaf_vector":"0"}},{"base_weights":[-1.1203648E-1,-2.1657649E-1,1.5203658E-1,-6.022064E-2,-3.5103112E-1,2.2496405E-1,-1.20281555E-1],"categories":[],"categories_nodes":[],"categories_segments":[],"categories_sizes":[],"default_left":[1,1,1,0,0,0,0],"id":60,"left_children":[1,3,5,-1,-1,-1,-1],"loss_changes":[1.682099E2,9.173695E1,3.435021E1,0E0,0E0,0E0,0E0],"parents":[2147483647,0,0,1,1,2,2],"right_children":[2,4,6,-1,-1,-1,-1],"split_conditions":[2.15E1,1.15E1,2.35E1,-6.022064E-4,-3.5103112E-3,2.2496404E-3,-1.2028156E-3],"split_indices":[51,80,81,0,0,0,0],"split_type":[0,0,0,0,0,0,0],"sum_hessian":[6.091001E3,4.3636997E3,1.7273011E3,2.0182021E3,2.3454976E3,1.3625742E3,3.6472687E2],"tree_param":{"num_deleted":"0","num_feature":"104","num_nodes":"7","size_leaf_vector":"0"}},{"base_weights":[1.120365E-1,2.165765E-1,-1.5203658E-1,6.0220648E-2,3.5103112E-1,-2.2496405E-1,1.2028162E-1],"categories":[],"categories_nodes":[],"categories_segments":[],"categories_sizes":[],"default_left":[1,1,1,0,0,0,0],"id":61,"left_children":[1,3,5,-1,-1,-1,-1],"loss_changes":[1.6820993E2,9.173694E1,3.4350227E1,0E0,0E0,0E0,0E0],"parents":[2147483647,0,0,1,1,2,2],"right_children":[2,4,6,-1,-1,-1,-1],"split_conditions":[2.15E1,1.15E1,2.35E1,6.0220645E-4,3.5103112E-3,-2.2496404E-3,1.2028161E-3],"split_indices":[51,80,81,0,0,0,0],"split_type":[0,0,0,0,0,0,0],"sum_hessian":[6.091001E3,4.3636997E3,1.7273011E3,2.0182021E3,2.3454976E3,1.3625742E3,3.6472687E2],"tree_param":{"num_deleted":"0","num_feature":"104","num_nodes":"7","size_leaf_vector":"0"}},{"base_weights":[-1.1095285E-1,-2.7962938E-1,5.083075E-2,-2.143679E-1,-5.618405E-1,-1.9108036E-1,1.4928408E-1],"categories":[],"categories_nodes":[],"categories_segments":[],"categories_sizes":[],"default_left":[1,1,1,0,0,0,0],"id":62,"left_children":[1,3,5,-1,-1,-1,-1],"loss_changes":[1.6620575E2,5.479428E1,7.408445E1,0E0,0E0,0E0,0E0],"parents":[2147483647,0,0,1,1,2,2],"right_children":[2,4,6,-1,-1,-1,-1],"split_conditions":[1.45E1,2.25E1,-2.45E0,-2.143679E-3,-5.6184046E-3,-1.9108036E-3,1.4928408E-3],"split_indices":[51,80,77,0,0,0,0],"split_type":[0,0,0,0,0,0,0],"sum_hessian":[6.0890347E3,2.9806565E3,3.1083784E3,2.4222656E3,5.5839087E2,8.988529E2,2.2095254E3],"tree_param":{"num_deleted":"0","num_feature":"104","num_nodes":"7","size_leaf_vector":"0"}},{"base_weights":[1.1095284E-1,2.7962935E-1,-5.083073E-2,2.1436787E-1,5.618404E-1,1.9108036E-1,-1.4928405E-1],"categories":[],"categories_nodes":[],"categories_segments":[],"categories_sizes":[],"default_left":[1,1,1,0,0,0,0],"id":63,"left_children":[1,3,5,-1,-1,-1,-1],"loss_changes":[1.662057E2,5.479425E1,7.408443E1,0E0,0E0,0E0,0E0],"parents":[2147483647,0,0,1,1,2,2],"right_children":[2,4,6,-1,-1,-1,-1],"split_conditions":[1.45E1,2.25E1,-2.45E0,2.1436787E-3,5.618404E-3,1.9108036E-3,-1.4928405E-3],"split_indices":[51,80,77,0,0,0,0],"split_type":[0,0,0,0,0,0,0],"sum_hessian":[6.0890347E3,2.9806565E3,3.1083784E3,2.4222656E3,5.583908E2,8.988529E2,2.2095254E3],"tree_param":{"num_deleted":"0","num_feature":"104","num_nodes":"7","size_leaf_vector":"0"}},{"base_weights":[-1.09881565E-1,-2.0472327E-1,1.7259811E-1,-4.672514E-2,-3.406975E-1,2.3679312E-1,-1.2287525E-1],"categories":[],"categories_nodes":[],"categories_segments":[],"categories_sizes":[],"default_left":[1,1,1,0,0,0,0],"id":64,"left_children":[1,3,5,-1,-1,-1,-1],"loss_changes":[1.6313858E2,9.791144E1,2.906514E1,0E0,0E0,0E0,0E0],"parents":[2147483647,0,0,1,1,2,2],"right_children":[2,4,6,-1,-1,-1,-1],"split_conditions":[2.25E1,1.15E1,2.45E1,-4.6725138E-4,-3.406975E-3,2.3679312E-3,-1.2287524E-3],"split_indices":[51,80,81,0,0,0,0],"split_type":[0,0,0,0,0,0,0],"sum_hessian":[6.0870195E3,4.557221E3,1.5297981E3,2.1085225E3,2.4486987E3,1.256917E3,2.7288113E2],"tree_param":{"num_deleted":"0","num_feature":"104","num_nodes":"7","size_leaf_vector":"0"}},{"base_weights":[1.0988154E-1,2.0472327E-1,-1.7259817E-1,4.6725135E-2,3.406975E-1,-2.3679318E-1,1.2287525E-1],"categories":[],"categories_nodes":[],"categories_segments":[],"categories_sizes":[],"default_left":[1,1,1,0,0,0,0],"id":65,"left_children":[1,3,5,-1,-1,-1,-1],"loss_changes":[1.6313861E2,9.791144E1,2.9065163E1,0E0,0E0,0E0,0E0],"parents":[2147483647,0,0,1,1,2,2],"right_children":[2,4,6,-1,-1,-1,-1],"split_conditions":[2.25E1,1.15E1,2.45E1,4.6725135E-4,3.406975E-3,-2.3679317E-3,1.2287524E-3],"split_indices":[51,80,81,0,0,0,0],"split_type":[0,0,0,0,0,0,0],"sum_hessian":[6.0870195E3,4.557221E3,1.5297982E3,2.1085225E3,2.4486987E3,1.256917E3,2.7288113E2],"tree_param":{"num_deleted":"0","num_feature":"104","num_nodes":"7","size_leaf_vector":"0"}},{"base_weights":[-1.0881944E-1,-2.7510825E-1,5.056521E-2,-2.1068484E-1,-5.541803E-1,-8.845217E-2,2.1774542E-1],"categories":[],"categories_nodes":[],"categories_segments":[],"categories_sizes":[],"default_left":[1,1,1,0,0,0,0],"id":66,"left_children":[1,3,5,-1,-1,-1,-1],"loss_changes":[1.6131691E2,5.343576E1,7.226056E1,0E0,0E0,0E0,0E0],"parents":[2147483647,0,0,1,1,2,2],"right_children":[2,4,6,-1,-1,-1,-1],"split_conditions":[1.45E1,2.25E1,5.245E-1,-2.1068484E-3,-5.5418033E-3,-8.8452164E-4,2.1774543E-3],"split_indices":[51,80,55,0,0,0,0],"split_type":[0,0,0,0,0,0,0],"sum_hessian":[6.085014E3,2.9776516E3,3.1073623E3,2.4206118E3,5.570399E2,1.6968397E3,1.4105227E3],"tree_param":{"num_deleted":"0","num_feature":"104","num_nodes":"7","size_leaf_vector":"0"}},{"base_weights":[1.0881944E-1,2.7510825E-1,-5.056521E-2,2.1068485E-1,5.541803E-1,8.845217E-2,-2.1774542E-1],"categories":[],"categories_nodes":[],"categories_segments":[],"categories_sizes":[],"default_left":[1,1,1,0,0,0,0],"id":67,"left_children":[1,3,5,-1,-1,-1,-1],"loss_changes":[1.6131693E2,5.3435745E1,7.226058E1,0E0,0E0,0E0,0E0],"parents":[2147483647,0,0,1,1,2,2],"right_children":[2,4,6,-1,-1,-1,-1],"split_conditions":[1.45E1,2.25E1,5.245E-1,2.1068484E-3,5.5418033E-3,8.8452164E-4,-2.1774543E-3],"split_indices":[51,80,55,0,0,0,0],"split_type":[0,0,0,0,0,0,0],"sum_hessian":[6.085014E3,2.9776516E3,3.1073623E3,2.4206118E3,5.570399E2,1.6968397E3,1.4105226E3],"tree_param":{"num_deleted":"0","num_feature":"104","num_nodes":"7","size_leaf_vector":"0"}},{"base_weights":[-1.0776915E-1,-2.1386231E-1,1.3843149E-1,-8.254939E-2,-3.6436844E-1,-1.3354737E-1,2.1147613E-1],"categories":[],"categories_nodes":[],"categories_segments":[],"categories_sizes":[],"default_left":[1,1,1,0,0,0,0],"id":68,"left_children":[1,3,5,-1,-1,-1,-1],"loss_changes":[1.5894388E2,8.400728E1,3.6439526E1,0E0,0E0,0E0,0E0],"parents":[2147483647,0,0,1,1,2,2],"right_children":[2,4,6,-1,-1,-1,-1],"split_conditions":[1.95E1,1.35E1,3.585E-1,-8.254939E-4,-3.6436843E-3,-1.3354736E-3,2.1147614E-3],"split_indices":[28,80,55,0,0,0,0],"split_type":[0,0,0,0,0,0,0],"sum_hessian":[6.08296E3,4.2511704E3,1.8317896E3,2.2711746E3,1.9799958E3,3.876313E2,1.4441583E3],"tree_param":{"num_deleted":"0","num_feature":"104","num_nodes":"7","size_leaf_vector":"0"}},{"base_weights":[1.0776915E-1,2.1386231E-1,-1.3843149E-1,8.2549416E-2,3.643684E-1,1.3354737E-1,-2.1147613E-1],"categories":[],"categories_nodes":[],"categories_segments":[],"categories_sizes":[],"default_left":[1,1,1,0,0,0,0],"id":69,"left_children":[1,3,5,-1,-1,-1,-1],"loss_changes":[1.589439E2,8.400723E1,3.643953E1,0E0,0E0,0E0,0E0],"parents":[2147483647,0,0,1,1,2,2],"right_children":[2,4,6,-1,-1,-1,-1],"split_conditions":[1.95E1,1.35E1,3.585E-1,8.254941E-4,3.643684E-3,1.3354736E-3,-2.1147614E-3],"split_indices":[28,80,55,0,0,0,0],"split_type":[0,0,0,0,0,0,0],"sum_hessian":[6.08296E3,4.2511704E3,1.8317896E3,2.2711746E3,1.9799958E3,3.876313E2,1.4441583E3],"tree_param":{"num_deleted":"0","num_feature":"104","num_nodes":"7","size_leaf_vector":"0"}},{"base_weights":[-1.06730975E-1,-2.70587E-1,5.020798E-2,-3.3533084E-1,1.5350679E-3,-1.853527E-1,1.460375E-1],"categories":[],"categories_nodes":[],"categories_segments":[],"categories_sizes":[],"default_left":[1,1,1,0,0,0,0],"id":70,"left_children":[1,3,5,-1,-1,-1,-1],"loss_changes":[1.5640866E2,5.2423096E1,7.0170135E1,0E0,0E0,0E0,0E0],"parents":[2147483647,0,0,1,1,2,2],"right_children":[2,4,6,-1,-1,-1,-1],"split_conditions":[1.45E1,5.05E0,-2.45E0,-3.3533084E-3,1.5350679E-5,-1.8535269E-3,1.460375E-3],"split_indices":[51,77,77,0,0,0,0],"split_type":[0,0,0,0,0,0,0],"sum_hessian":[6.080769E3,2.974473E3,3.1062961E3,2.4026072E3,5.718658E2,8.9799084E2,2.2083054E3],"tree_param":{"num_deleted":"0","num_feature":"104","num_nodes":"7","size_leaf_vector":"0"}},{"base_weights":[1.06731E-1,2.7058703E-1,-5.0207995E-2,3.353309E-1,-1.5349532E-3,1.8535271E-1,-1.4603753E-1],"categories":[],"categories_nodes":[],"categories_segments":[],"categories_sizes":[],"default_left":[1,1,1,0,0,0,0],"id":71,"left_children":[1,3,5,-1,-1,-1,-1],"loss_changes":[1.5640872E2,5.2423065E1,7.017016E1,0E0,0E0,0E0,0E0],"parents":[2147483647,0,0,1,1,2,2],"right_children":[2,4,6,-1,-1,-1,-1],"split_conditions":[1.45E1,5.05E0,-2.45E0,3.353309E-3,-1.5349533E-5,1.853527E-3,-1.4603753E-3],"split_indices":[51,77,77,0,0,0,0],"split_type":[0,0,0,0,0,0,0],"sum_hessian":[6.080769E3,2.974473E3,3.1062961E3,2.4026072E3,5.718658E2,8.9799084E2,2.2083054E3],"tree_param":{"num_deleted":"0","num_feature":"104","num_nodes":"7","size_leaf_vector":"0"}},{"base_weights":[-1.05703294E-1,-1.9801264E-1,1.6898002E-1,-4.410673E-2,-3.30745E-1,2.312996E-1,-1.17804274E-1],"categories":[],"categories_nodes":[],"categories_segments":[],"categories_sizes":[],"default_left":[1,1,1,0,0,0,0],"id":72,"left_children":[1,3,5,-1,-1,-1,-1],"loss_changes":[1.5418564E2,9.295111E1,2.7366905E1,0E0,0E0,0E0,0E0],"parents":[2147483647,0,0,1,1,2,2],"right_children":[2,4,6,-1,-1,-1,-1],"split_conditions":[2.25E1,1.15E1,2.45E1,-4.4106727E-4,-3.30745E-3,2.312996E-3,-1.1780427E-3],"split_indices":[51,80,81,0,0,0,0],"split_type":[0,0,0,0,0,0,0],"sum_hessian":[6.0785547E3,4.54983E3,1.5287246E3,2.1074875E3,2.4423425E3,1.2559863E3,2.7273825E2],"tree_param":{"num_deleted":"0","num_feature":"104","num_nodes":"7","size_leaf_vector":"0"}},{"base_weights":[1.0570327E-1,1.980126E-1,-1.6898006E-1,4.4106692E-2,3.30745E-1,-2.3129964E-1,1.178043E-1],"categories":[],"categories_nodes":[],"categories_segments":[],"categories_sizes":[],"default_left":[1,1,1,0,0,0,0],"id":73,"left_children":[1,3,5,-1,-1,-1,-1],"loss_changes":[1.5418564E2,9.2951126E1,2.7366917E1,0E0,0E0,0E0,0E0],"parents":[2147483647,0,0,1,1,2,2],"right_children":[2,4,6,-1,-1,-1,-1],"split_conditions":[2.25E1,1.15E1,2.45E1,4.4106692E-4,3.30745E-3,-2.3129964E-3,1.178043E-3],"split_indices":[51,80,81,0,0,0,0],"split_type":[0,0,0,0,0,0,0],"sum_hessian":[6.0785547E3,4.54983E3,1.5287246E3,2.1074875E3,2.4423425E3,1.2559863E3,2.7273825E2],"tree_param":{"num_deleted":"0","num_feature":"104","num_nodes":"7","size_leaf_vector":"0"}},{"base_weights":[-1.0468418E-1,9.1060705E-2,-2.324723E-1,-3.7401944E-2,2.3431683E-1,-4.4489256E-1,-1.4039777E-1],"categories":[],"categories_nodes":[],"categories_segments":[],"categories_sizes":[],"default_left":[1,1,1,0,0,0,0],"id":74,"left_children":[1,3,5,-1,-1,-1,-1],"loss_changes":[1.5204053E2,4.4197327E1,7.185895E1,0E0,0E0,0E0,0E0],"parents":[2147483647,0,0,1,1,2,2],"right_children":[2,4,6,-1,-1,-1,-1],"split_conditions":[4.6850002E-1,5.135E-1,-1.75E0,-3.7401944E-4,2.3431682E-3,-4.4489256E-3,-1.4039777E-3],"split_indices":[3,55,77,0,0,0,0],"split_type":[0,0,0,0,0,0,0],"sum_hessian":[6.0764014E3,2.4001528E3,3.6762485E3,1.2658031E3,1.1343499E3,1.1104823E3,2.5657664E3],"tree_param":{"num_deleted":"0","num_feature":"104","num_nodes":"7","size_leaf_vector":"0"}},{"base_weights":[1.0468418E-1,-9.106071E-2,2.3247232E-1,3.7401963E-2,-2.3431687E-1,4.4489256E-1,1.4039779E-1],"categories":[],"categories_nodes":[],"categories_segments":[],"categories_sizes":[],"default_left":[1,1,1,0,0,0,0],"id":75,"left_children":[1,3,5,-1,-1,-1,-1],"loss_changes":[1.5204053E2,4.419735E1,7.185896E1,0E0,0E0,0E0,0E0],"parents":[2147483647,0,0,1,1,2,2],"right_children":[2,4,6,-1,-1,-1,-1],"split_conditions":[4.6850002E-1,5.135E-1,-1.75E0,3.740196E-4,-2.3431687E-3,4.4489256E-3,1.4039779E-3],"split_indices":[3,55,77,0,0,0,0],"split_type":[0,0,0,0,0,0,0],"sum_hessian":[6.0764014E3,2.4001528E3,3.6762485E3,1.2658031E3,1.1343499E3,1.1104823E3,2.5657664E3],"tree_param":{"num_deleted":"0","num_feature":"104","num_nodes":"7","size_leaf_vector":"0"}},{"base_weights":[-1.0367713E-1,-2.6419854E-1,4.9903408E-2,-2.013524E-1,-5.3752434E-1,-8.440118E-2,2.1141398E-1],"categories":[],"categories_nodes":[],"categories_segments":[],"categories_sizes":[],"default_left":[1,1,1,0,0,0,0],"id":76,"left_children":[1,3,5,-1,-1,-1,-1],"loss_changes":[1.4978326E2,5.091922E1,6.738182E1,0E0,0E0,0E0,0E0],"parents":[2147483647,0,0,1,1,2,2],"right_children":[2,4,6,-1,-1,-1,-1],"split_conditions":[1.45E1,2.25E1,5.245E-1,-2.013524E-3,-5.3752433E-3,-8.440118E-4,2.1141397E-3],"split_indices":[51,80,55,0,0,0,0],"split_type":[0,0,0,0,0,0,0],"sum_hessian":[6.074135E3,2.9696035E3,3.104531E3,2.415859E3,5.537447E2,1.6952872E3,1.4092438E3],"tree_param":{"num_deleted":"0","num_feature":"104","num_nodes":"7","size_leaf_vector":"0"}},{"base_weights":[1.0367717E-1,2.6419857E-1,-4.9903393E-2,2.0135246E-1,5.3752434E-1,8.4401175E-2,-2.1141393E-1],"categories":[],"categories_nodes":[],"categories_segments":[],"categories_sizes":[],"default_left":[1,1,1,0,0,0,0],"id":77,"left_children":[1,3,5,-1,-1,-1,-1],"loss_changes":[1.497833E2,5.0919205E1,6.738179E1,0E0,0E0,0E0,0E0],"parents":[2147483647,0,0,1,1,2,2],"right_children":[2,4,6,-1,-1,-1,-1],"split_conditions":[1.45E1,2.25E1,5.245E-1,2.0135245E-3,5.3752433E-3,8.440117E-4,-2.1141393E-3],"split_indices":[51,80,55,0,0,0,0],"split_type":[0,0,0,0,0,0,0],"sum_hessian":[6.074135E3,2.9696038E3,3.104531E3,2.415859E3,5.5374475E2,1.6952874E3,1.4092438E3],"tree_param":{"num_deleted":"0","num_feature":"104","num_nodes":"7","size_leaf_vector":"0"}},{"base_weights":[-1.0267961E-1,-2.0514402E-1,1.34784E-1,-1.2034774E-1,-4.262571E-1,-1.2808004E-1,2.054063E-1],"categories":[],"categories_nodes":[],"categories_segments":[],"categories_sizes":[],"default_left":[1,1,1,0,0,0,0],"id":78,"left_children":[1,3,5,-1,-1,-1,-1],"loss_changes":[1.4779095E2,7.949835E1,3.4020027E1,0E0,0E0,0E0,0E0],"parents":[2147483647,0,0,1,1,2,2],"right_children":[2,4,6,-1,-1,-1,-1],"split_conditions":[1.95E1,1.95E1,3.585E-1,-1.2034774E-3,-4.2625708E-3,-1.2808003E-3,2.054063E-3],"split_indices":[28,80,55,0,0,0,0],"split_type":[0,0,0,0,0,0,0],"sum_hessian":[6.0719043E3,4.2417466E3,1.8301575E3,3.0670754E3,1.1746713E3,3.8739954E2,1.4427579E3],"tree_param":{"num_deleted":"0","num_feature":"104","num_nodes":"7","size_leaf_vector":"0"}},{"base_weights":[1.02679595E-1,2.0514403E-1,-1.3478404E-1,1.2034774E-1,4.262571E-1,1.2808003E-1,-2.0540635E-1],"categories":[],"categories_nodes":[],"categories_segments":[],"categories_sizes":[],"default_left":[1,1,1,0,0,0,0],"id":79,"left_children":[1,3,5,-1,-1,-1,-1],"loss_changes":[1.4779102E2,7.949834E1,3.402004E1,0E0,0E0,0E0,0E0],"parents":[2147483647,0,0,1,1,2,2],"right_children":[2,4,6,-1,-1,-1,-1],"split_conditions":[1.95E1,1.95E1,3.585E-1,1.2034774E-3,4.2625708E-3,1.2808002E-3,-2.0540634E-3],"split_indices":[28,80,55,0,0,0,0],"split_type":[0,0,0,0,0,0,0],"sum_hessian":[6.0719043E3,4.2417466E3,1.8301575E3,3.0670754E3,1.1746713E3,3.8739957E2,1.4427579E3],"tree_param":{"num_deleted":"0","num_feature":"104","num_nodes":"7","size_leaf_vector":"0"}},{"base_weights":[-1.0169191E-1,-1.8423164E-1,1.8862793E-1,-3.4741305E-2,-3.1330344E-1,2.2618026E-1,-2.2606511E-1],"categories":[],"categories_nodes":[],"categories_segments":[],"categories_sizes":[],"default_left":[1,1,1,0,0,0,0],"id":80,"left_children":[1,3,5,-1,-1,-1,-1],"loss_changes":[1.4550513E2,9.120221E1,2.098627E1,0E0,0E0,0E0,0E0],"parents":[2147483647,0,0,1,1,2,2],"right_children":[2,4,6,-1,-1,-1,-1],"split_conditions":[2.35E1,1.15E1,2.75E1,-3.4741304E-4,-3.1330343E-3,2.2618026E-3,-2.2606512E-3],"split_indices":[51,80,81,0,0,0,0],"split_type":[0,0,0,0,0,0,0],"sum_hessian":[6.0696445E3,4.726295E3,1.3433496E3,2.1905176E3,2.5357773E3,1.232221E3,1.111286E2],"tree_param":{"num_deleted":"0","num_feature":"104","num_nodes":"7","size_leaf_vector":"0"}},{"base_weights":[1.0169191E-1,1.8423162E-1,-1.8862788E-1,3.4741297E-2,3.1330344E-1,-2.2618021E-1,2.2606511E-1],"categories":[],"categories_nodes":[],"categories_segments":[],"categories_sizes":[],"default_left":[1,1,1,0,0,0,0],"id":81,"left_children":[1,3,5,-1,-1,-1,-1],"loss_changes":[1.455051E2,9.1202194E1,2.0986275E1,0E0,0E0,0E0,0E0],"parents":[2147483647,0,0,1,1,2,2],"right_children":[2,4,6,-1,-1,-1,-1],"split_conditions":[2.35E1,1.15E1,2.75E1,3.4741298E-4,3.1330343E-3,-2.261802E-3,2.2606512E-3],"split_indices":[51,80,81,0,0,0,0],"split_type":[0,0,0,0,0,0,0],"sum_hessian":[6.0696445E3,4.726295E3,1.3433496E3,2.1905176E3,2.5357773E3,1.232221E3,1.111286E2],"tree_param":{"num_deleted":"0","num_feature":"104","num_nodes":"7","size_leaf_vector":"0"}},{"base_weights":[-1.0071203E-1,-2.5820506E-1,4.9812775E-2,-3.214872E-1,6.814869E-3,-8.442391E-2,2.0592183E-1],"categories":[],"categories_nodes":[],"categories_segments":[],"categories_sizes":[],"default_left":[1,1,1,0,0,0,0],"id":82,"left_children":[1,3,5,-1,-1,-1,-1],"loss_changes":[1.4387573E2,4.9740906E1,6.505751E1,0E0,0E0,0E0,0E0],"parents":[2147483647,0,0,1,1,2,2],"right_children":[2,4,6,-1,-1,-1,-1],"split_conditions":[1.45E1,5.05E0,5.5E-1,-3.2148717E-3,6.814869E-5,-8.44239E-4,2.0592182E-3],"split_indices":[51,77,77,0,0,0,0],"split_type":[0,0,0,0,0,0,0],"sum_hessian":[6.0674717E3,2.9647546E3,3.1027168E3,2.3931091E3,5.7164557E2,1.6684725E3,1.4342444E3],"tree_param":{"num_deleted":"0","num_feature":"104","num_nodes":"7","size_leaf_vector":"0"}},{"base_weights":[1.0071205E-1,2.582051E-1,-4.981275E-2,3.2148722E-1,-6.8149567E-3,8.442393E-2,-2.059218E-1],"categories":[],"categories_nodes":[],"categories_segments":[],"categories_sizes":[],"default_left":[1,1,1,0,0,0,0],"id":83,"left_children":[1,3,5,-1,-1,-1,-1],"loss_changes":[1.438757E2,4.9740982E1,6.50575E1,0E0,0E0,0E0,0E0],"parents":[2147483647,0,0,1,1,2,2],"right_children":[2,4,6,-1,-1,-1,-1],"split_conditions":[1.45E1,5.05E0,5.5E-1,3.2148722E-3,-6.8149566E-5,8.4423926E-4,-2.059218E-3],"split_indices":[51,77,77,0,0,0,0],"split_type":[0,0,0,0,0,0,0],"sum_hessian":[6.0674717E3,2.9647546E3,3.1027168E3,2.393109E3,5.7164557E2,1.6684725E3,1.4342444E3],"tree_param":{"num_deleted":"0","num_feature":"104","num_nodes":"7","size_leaf_vector":"0"}},{"base_weights":[-9.974379E-2,-1.8828899E-1,1.6335231E-1,-4.030171E-2,-3.1635514E-1,2.2339803E-1,-1.1280619E-1],"categories":[],"categories_nodes":[],"categories_segments":[],"categories_sizes":[],"default_left":[1,1,1,0,0,0,0],"id":84,"left_children":[1,3,5,-1,-1,-1,-1],"loss_changes":[1.4134723E2,8.6013535E1,2.5363132E1,0E0,0E0,0E0,0E0],"parents":[2147483647,0,0,1,1,2,2],"right_children":[2,4,6,-1,-1,-1,-1],"split_conditions":[2.25E1,1.15E1,2.45E1,-4.030171E-4,-3.1635512E-3,2.2339802E-3,-1.1280619E-3],"split_indices":[51,80,81,0,0,0,0],"split_type":[0,0,0,0,0,0,0],"sum_hessian":[6.065153E3,4.538127E3,1.5270259E3,2.1059287E3,2.4321982E3,1.2544576E3,2.725683E2],"tree_param":{"num_deleted":"0","num_feature":"104","num_nodes":"7","size_leaf_vector":"0"}},{"base_weights":[9.974382E-2,1.8828903E-1,-1.633523E-1,4.030178E-2,3.1635514E-1,-2.23398E-1,1.1280618E-1],"categories":[],"categories_nodes":[],"categories_segments":[],"categories_sizes":[],"default_left":[1,1,1,0,0,0,0],"id":85,"left_children":[1,3,5,-1,-1,-1,-1],"loss_changes":[1.4134726E2,8.601347E1,2.5363132E1,0E0,0E0,0E0,0E0],"parents":[2147483647,0,0,1,1,2,2],"right_children":[2,4,6,-1,-1,-1,-1],"split_conditions":[2.25E1,1.15E1,2.45E1,4.030178E-4,3.1635512E-3,-2.23398E-3,1.1280618E-3],"split_indices":[51,80,81,0,0,0,0],"split_type":[0,0,0,0,0,0,0],"sum_hessian":[6.065153E3,4.538127E3,1.5270259E3,2.1059287E3,2.4321985E3,1.2544576E3,2.7256827E2],"tree_param":{"num_deleted":"0","num_feature":"104","num_nodes":"7","size_leaf_vector":"0"}},{"base_weights":[-9.878534E-2,-2.5408438E-1,4.95207E-2,-1.927853E-1,-5.2185726E-1,-1.7490223E-1,1.4073458E-1],"categories":[],"categories_nodes":[],"categories_segments":[],"categories_sizes":[],"default_left":[1,1,1,0,0,0,0],"id":86,"left_children":[1,3,5,-1,-1,-1,-1],"loss_changes":[1.3967297E2,4.8522186E1,6.353587E1,0E0,0E0,0E0,0E0],"parents":[2147483647,0,0,1,1,2,2],"right_children":[2,4,6,-1,-1,-1,-1],"split_conditions":[1.45E1,2.25E1,-2.45E0,-1.9278529E-3,-5.2185724E-3,-1.7490223E-3,1.4073458E-3],"split_indices":[51,80,77,0,0,0,0],"split_type":[0,0,0,0,0,0,0],"sum_hessian":[6.0628115E3,2.9612346E3,3.101577E3,2.4110195E3,5.50215E2,8.9604E2,2.205537E3],"tree_param":{"num_deleted":"0","num_feature":"104","num_nodes":"7","size_leaf_vector":"0"}},{"base_weights":[9.878532E-2,2.5408435E-1,-4.952072E-2,1.9278526E-1,5.2185726E-1,1.749022E-1,-1.407346E-1],"categories":[],"categories_nodes":[],"categories_segments":[],"categories_sizes":[],"default_left":[1,1,1,0,0,0,0],"id":87,"left_children":[1,3,5,-1,-1,-1,-1],"loss_changes":[1.3967297E2,4.85222E1,6.353587E1,0E0,0E0,0E0,0E0],"parents":[2147483647,0,0,1,1,2,2],"right_children":[2,4,6,-1,-1,-1,-1],"split_conditions":[1.45E1,2.25E1,-2.45E0,1.9278526E-3,5.2185724E-3,1.7490219E-3,-1.407346E-3],"split_indices":[51,80,77,0,0,0,0],"split_type":[0,0,0,0,0,0,0],"sum_hessian":[6.0628115E3,2.9612346E3,3.101577E3,2.4110195E3,5.502151E2,8.9604E2,2.205537E3],"tree_param":{"num_deleted":"0","num_feature":"104","num_nodes":"7","size_leaf_vector":"0"}},{"base_weights":[-9.783819E-2,-1.9691572E-1,1.3146512E-1,-1.1459826E-1,-4.123587E-1,6.914926E-3,2.7214766E-1],"categories":[],"categories_nodes":[],"categories_segments":[],"categories_sizes":[],"default_left":[1,1,1,0,0,0,0],"id":88,"left_children":[1,3,5,-1,-1,-1,-1],"loss_changes":[1.3773369E2,7.502351E1,3.2053234E1,0E0,0E0,0E0,0E0],"parents":[2147483647,0,0,1,1,2,2],"right_children":[2,4,6,-1,-1,-1,-1],"split_conditions":[1.95E1,1.95E1,5.135E-1,-1.1459825E-3,-4.1235867E-3,6.914926E-5,2.7214766E-3],"split_indices":[28,80,55,0,0,0,0],"split_type":[0,0,0,0,0,0,0],"sum_hessian":[6.0604014E3,4.231984E3,1.828417E3,3.0631382E3,1.168846E3,9.703703E2,8.5804675E2],"tree_param":{"num_deleted":"0","num_feature":"104","num_nodes":"7","size_leaf_vector":"0"}},{"base_weights":[9.783821E-2,1.9691573E-1,-1.3146512E-1,1.1459827E-1,4.1235876E-1,-6.9149197E-3,-2.7214766E-1],"categories":[],"categories_nodes":[],"categories_segments":[],"categories_sizes":[],"default_left":[1,1,1,0,0,0,0],"id":89,"left_children":[1,3,5,-1,-1,-1,-1],"loss_changes":[1.3773367E2,7.502356E1,3.2053238E1,0E0,0E0,0E0,0E0],"parents":[2147483647,0,0,1,1,2,2],"right_children":[2,4,6,-1,-1,-1,-1],"split_conditions":[1.95E1,1.95E1,5.135E-1,1.1459826E-3,4.1235876E-3,-6.9149195E-5,-2.7214766E-3],"split_indices":[28,80,55,0,0,0,0],"split_type":[0,0,0,0,0,0,0],"sum_hessian":[6.0604014E3,4.2319844E3,1.828417E3,3.0631382E3,1.168846E3,9.703703E2,8.5804675E2],"tree_param":{"num_deleted":"0","num_feature":"104","num_nodes":"7","size_leaf_vector":"0"}},{"base_weights":[-9.689925E-2,-2.4994788E-1,4.914245E-2,-3.1223375E-1,1.0211555E-2,-8.157209E-2,2.0115468E-1],"categories":[],"categories_nodes":[],"categories_segments":[],"categories_sizes":[],"default_left":[1,1,1,0,0,0,0],"id":90,"left_children":[1,3,5,-1,-1,-1,-1],"loss_changes":[1.3543967E2,4.7946518E1,6.1639973E1,0E0,0E0,0E0,0E0],"parents":[2147483647,0,0,1,1,2,2],"right_children":[2,4,6,-1,-1,-1,-1],"split_conditions":[1.45E1,5.05E0,5.5E-1,-3.1223374E-3,1.0211555E-4,-8.1572094E-4,2.0115466E-3],"split_indices":[51,77,77,0,0,0,0],"split_type":[0,0,0,0,0,0,0],"sum_hessian":[6.05799E3,2.957686E3,3.1003042E3,2.3861963E3,5.714896E2,1.6671736E3,1.4331306E3],"tree_param":{"num_deleted":"0","num_feature":"104","num_nodes":"7","size_leaf_vector":"0"}},{"base_weights":[9.6899234E-2,2.4994785E-1,-4.9142454E-2,3.1223372E-1,-1.0211557E-2,8.157208E-2,-2.0115468E-1],"categories":[],"categories_nodes":[],"categories_segments":[],"categories_sizes":[],"default_left":[1,1,1,0,0,0,0],"id":91,"left_children":[1,3,5,-1,-1,-1,-1],"loss_changes":[1.3543967E2,4.7946503E1,6.1639965E1,0E0,0E0,0E0,0E0],"parents":[2147483647,0,0,1,1,2,2],"right_children":[2,4,6,-1,-1,-1,-1],"split_conditions":[1.45E1,5.05E0,5.5E-1,3.1223372E-3,-1.0211557E-4,8.1572076E-4,-2.0115466E-3],"split_indices":[51,77,77,0,0,0,0],"split_type":[0,0,0,0,0,0,0],"sum_hessian":[6.05799E3,2.957686E3,3.1003042E3,2.3861965E3,5.714896E2,1.6671735E3,1.4331306E3],"tree_param":{"num_deleted":"0","num_feature":"104","num_nodes":"7","size_leaf_vector":"0"}},{"base_weights":[-9.596947E-2,-1.7536116E-1,1.8287529E-1,-3.145674E-2,-3.0002338E-1,2.192917E-1,-2.1913382E-1],"categories":[],"categories_nodes":[],"categories_segments":[],"categories_sizes":[],"default_left":[1,1,1,0,0,0,0],"id":92,"left_children":[1,3,5,-1,-1,-1,-1],"loss_changes":[1.3411201E2,8.4571976E1,1.970531E1,0E0,0E0,0E0,0E0],"parents":[2147483647,0,0,1,1,2,2],"right_children":[2,4,6,-1,-1,-1,-1],"split_conditions":[2.35E1,1.15E1,2.75E1,-3.1456738E-4,-3.0002338E-3,2.192917E-3,-2.1913382E-3],"split_indices":[51,80,81,0,0,0,0],"split_type":[0,0,0,0,0,0,0],"sum_hessian":[6.055563E3,4.713829E3,1.3417336E3,2.1886282E3,2.525201E3,1.2307036E3,1.1103003E2],"tree_param":{"num_deleted":"0","num_feature":"104","num_nodes":"7","size_leaf_vector":"0"}},{"base_weights":[9.5969476E-2,1.7536117E-1,-1.8287528E-1,3.145675E-2,3.0002338E-1,-2.1929167E-1,2.1913382E-1],"categories":[],"categories_nodes":[],"categories_segments":[],"categories_sizes":[],"default_left":[1,1,1,0,0,0,0],"id":93,"left_children":[1,3,5,-1,-1,-1,-1],"loss_changes":[1.3411198E2,8.457199E1,1.9705307E1,0E0,0E0,0E0,0E0],"parents":[2147483647,0,0,1,1,2,2],"right_children":[2,4,6,-1,-1,-1,-1],"split_conditions":[2.35E1,1.15E1,2.75E1,3.145675E-4,3.0002338E-3,-2.1929166E-3,2.1913382E-3],"split_indices":[51,80,81,0,0,0,0],"split_type":[0,0,0,0,0,0,0],"sum_hessian":[6.055563E3,4.7138296E3,1.3417336E3,2.1886282E3,2.5252012E3,1.2307036E3,1.1103003E2],"tree_param":{"num_deleted":"0","num_feature":"104","num_nodes":"7","size_leaf_vector":"0"}},{"base_weights":[-9.504738E-2,1.09821714E-1,-2.0142128E-1,-1.1202523E-1,1.8043157E-1,-4.112623E-1,-1.11632295E-1],"categories":[],"categories_nodes":[],"categories_segments":[],"categories_sizes":[],"default_left":[1,1,1,0,0,0,0],"id":94,"left_children":[1,3,5,-1,-1,-1,-1],"loss_changes":[1.319603E2,3.24429E1,7.504506E1,0E0,0E0,0E0,0E0],"parents":[2147483647,0,0,1,1,2,2],"right_children":[2,4,6,-1,-1,-1,-1],"split_conditions":[4.395E-1,3.725E-1,-1.75E0,-1.1202523E-3,1.8043157E-3,-4.112623E-3,-1.1163229E-3],"split_indices":[3,55,77,0,0,0,0],"split_type":[0,0,0,0,0,0,0],"sum_hessian":[6.05323E3,2.0688088E3,3.9844211E3,4.9934512E2,1.5694637E3,1.1929235E3,2.7914978E3],"tree_param":{"num_deleted":"0","num_feature":"104","num_nodes":"7","size_leaf_vector":"0"}},{"base_weights":[9.5047355E-2,-1.0982173E-1,2.0142126E-1,1.12025216E-1,-1.8043159E-1,4.112623E-1,1.1163226E-1],"categories":[],"categories_nodes":[],"categories_segments":[],"categories_sizes":[],"default_left":[1,1,1,0,0,0,0],"id":95,"left_children":[1,3,5,-1,-1,-1,-1],"loss_changes":[1.3196028E2,3.24429E1,7.504509E1,0E0,0E0,0E0,0E0],"parents":[2147483647,0,0,1,1,2,2],"right_children":[2,4,6,-1,-1,-1,-1],"split_conditions":[4.395E-1,3.725E-1,-1.75E0,1.1202522E-3,-1.8043158E-3,4.112623E-3,1.1163226E-3],"split_indices":[3,55,77,0,0,0,0],"split_type":[0,0,0,0,0,0,0],"sum_hessian":[6.05323E3,2.0688088E3,3.9844214E3,4.9934512E2,1.5694637E3,1.1929235E3,2.7914978E3],"tree_param":{"num_deleted":"0","num_feature":"104","num_nodes":"7","size_leaf_vector":"0"}},{"base_weights":[-9.413789E-2,-2.4423876E-1,4.8921496E-2,-3.055984E-1,1.1511135E-2,-1.6837233E-1,1.3717498E-1],"categories":[],"categories_nodes":[],"categories_segments":[],"categories_sizes":[],"default_left":[1,1,1,0,0,0,0],"id":96,"left_children":[1,3,5,-1,-1,-1,-1],"loss_changes":[1.2996167E2,4.634929E1,5.945915E1,0E0,0E0,0E0,0E0],"parents":[2147483647,0,0,1,1,2,2],"right_children":[2,4,6,-1,-1,-1,-1],"split_conditions":[1.45E1,5.05E0,-2.45E0,-3.055984E-3,1.1511135E-4,-1.6837233E-3,1.3717498E-3],"split_indices":[51,77,77,0,0,0,0],"split_type":[0,0,0,0,0,0,0],"sum_hessian":[6.0506777E3,2.9523274E3,3.0983503E3,2.3809045E3,5.714228E2,8.946572E2,2.203693E3],"tree_param":{"num_deleted":"0","num_feature":"104","num_nodes":"7","size_leaf_vector":"0"}},{"base_weights":[9.413788E-2,2.4423872E-1,-4.892149E-2,3.0559838E-1,-1.1511137E-2,1.6837236E-1,-1.37175E-1],"categories":[],"categories_nodes":[],"categories_segments":[],"categories_sizes":[],"default_left":[1,1,1,0,0,0,0],"id":97,"left_children":[1,3,5,-1,-1,-1,-1],"loss_changes":[1.2996164E2,4.634926E1,5.9459164E1,0E0,0E0,0E0,0E0],"parents":[2147483647,0,0,1,1,2,2],"right_children":[2,4,6,-1,-1,-1,-1],"split_conditions":[1.45E1,5.05E0,-2.45E0,3.0559837E-3,-1.1511137E-4,1.6837236E-3,-1.3717499E-3],"split_indices":[51,77,77,0,0,0,0],"split_type":[0,0,0,0,0,0,0],"sum_hessian":[6.0506777E3,2.9523274E3,3.0983503E3,2.3809045E3,5.714228E2,8.946572E2,2.203693E3],"tree_param":{"num_deleted":"0","num_feature":"104","num_nodes":"7","size_leaf_vector":"0"}},{"base_weights":[-9.323715E-2,-1.7099519E-1,1.7967702E-1,-2.9756533E-2,-2.9357266E-1,2.1535005E-1,-2.1413703E-1],"categories":[],"categories_nodes":[],"categories_segments":[],"categories_sizes":[],"default_left":[1,1,1,0,0,0,0],"id":98,"left_children":[1,3,5,-1,-1,-1,-1],"loss_changes":[1.2840051E2,8.1504425E1,1.8896679E1,0E0,0E0,0E0,0E0],"parents":[2147483647,0,0,1,1,2,2],"right_children":[2,4,6,-1,-1,-1,-1],"split_conditions":[2.35E1,1.15E1,2.75E1,-2.9756533E-4,-2.9357267E-3,2.1535004E-3,-2.1413702E-3],"split_indices":[51,80,81,0,0,0,0],"split_type":[0,0,0,0,0,0,0],"sum_hessian":[6.04811E3,4.707293E3,1.340817E3,2.1877373E3,2.5195554E3,1.2298649E3,1.1095222E2],"tree_param":{"num_deleted":"0","num_feature":"104","num_nodes":"7","size_leaf_vector":"0"}},{"base_weights":[9.3237124E-2,1.7099518E-1,-1.7967705E-1,2.9756516E-2,2.9357266E-1,-2.1535008E-1,2.1413694E-1],"categories":[],"categories_nodes":[],"categories_segments":[],"categories_sizes":[],"default_left":[1,1,1,0,0,0,0],"id":99,"left_children":[1,3,5,-1,-1,-1,-1],"loss_changes":[1.2840053E2,8.1504425E1,1.8896675E1,0E0,0E0,0E0,0E0],"parents":[2147483647,0,0,1,1,2,2],"right_children":[2,4,6,-1,-1,-1,-1],"split_conditions":[2.35E1,1.15E1,2.75E1,2.9756516E-4,2.9357267E-3,-2.1535007E-3,2.1413693E-3],"split_indices":[51,80,81,0,0,0,0],"split_type":[0,0,0,0,0,0,0],"sum_hessian":[6.04811E3,4.707293E3,1.340817E3,2.1877373E3,2.5195554E3,1.2298649E3,1.1095221E2],"tree_param":{"num_deleted":"0","num_feature":"104","num_nodes":"7","size_leaf_vector":"0"}},{"base_weights":[-9.234242E-2,8.621798E-2,-2.094061E-1,-1.3972181E-1,1.5458007E-1,-4.091462E-1,-1.23717315E-1],"categories":[],"categories_nodes":[],"categories_segments":[],"categories_sizes":[],"default_left":[1,1,1,0,0,0,0],"id":100,"left_children":[1,3,5,-1,-1,-1,-1],"loss_changes":[1.2641196E2,3.7016144E1,6.2464935E1,0E0,0E0,0E0,0E0],"parents":[2147483647,0,0,1,1,2,2],"right_children":[2,4,6,-1,-1,-1,-1],"split_conditions":[4.6850002E-1,3.705E-1,-1.75E0,-1.3972181E-3,1.5458007E-3,-4.0914617E-3,-1.2371731E-3],"split_indices":[3,55,77,0,0,0,0],"split_type":[0,0,0,0,0,0,0],"sum_hessian":[6.0457056E3,2.394133E3,3.6515725E3,5.5588025E2,1.8382528E3,1.0951075E3,2.556465E3],"tree_param":{"num_deleted":"0","num_feature":"104","num_nodes":"7","size_leaf_vector":"0"}},{"base_weights":[9.234244E-2,-8.621796E-2,2.0940611E-1,1.3972183E-1,-1.5458006E-1,4.0914622E-1,1.2371732E-1],"categories":[],"categories_nodes":[],"categories_segments":[],"categories_sizes":[],"default_left":[1,1,1,0,0,0,0],"id":101,"left_children":[1,3,5,-1,-1,-1,-1],"loss_changes":[1.2641194E2,3.701615E1,6.246495E1,0E0,0E0,0E0,0E0],"parents":[2147483647,0,0,1,1,2,2],"right_children":[2,4,6,-1,-1,-1,-1],"split_conditions":[4.6850002E-1,3.705E-1,-1.75E0,1.3972182E-3,-1.5458005E-3,4.091462E-3,1.2371732E-3],"split_indices":[3,55,77,0,0,0,0],"split_type":[0,0,0,0,0,0,0],"sum_hessian":[6.0457056E3,2.394133E3,3.6515725E3,5.558802E2,1.8382528E3,1.0951075E3,2.556465E3],"tree_param":{"num_deleted":"0","num_feature":"104","num_nodes":"7","size_leaf_vector":"0"}},{"base_weights":[-9.145962E-2,-2.3862004E-1,4.86259E-2,-1.7959087E-1,-4.9846715E-1,-7.777141E-2,1.9557008E-1],"categories":[],"categories_nodes":[],"categories_segments":[],"categories_sizes":[],"default_left":[1,1,1,0,0,0,0],"id":102,"left_children":[1,3,5,-1,-1,-1,-1],"loss_changes":[1.2461133E2,4.5125397E1,5.7542873E1,0E0,0E0,0E0,0E0],"parents":[2147483647,0,0,1,1,2,2],"right_children":[2,4,6,-1,-1,-1,-1],"split_conditions":[1.45E1,2.25E1,5.5E-1,-1.7959087E-3,-4.9846712E-3,-7.7771407E-4,1.9557008E-3],"split_indices":[51,80,77,0,0,0,0],"split_type":[0,0,0,0,0,0,0],"sum_hessian":[6.043116E3,2.9467937E3,3.0963225E3,2.4026726E3,5.441212E2,1.6647885E3,1.4315342E3],"tree_param":{"num_deleted":"0","num_feature":"104","num_nodes":"7","size_leaf_vector":"0"}},{"base_weights":[9.145961E-2,2.3862004E-1,-4.8625916E-2,1.7959087E-1,4.9846715E-1,7.777139E-2,-1.9557008E-1],"categories":[],"categories_nodes":[],"categories_segments":[],"categories_sizes":[],"default_left":[1,1,1,0,0,0,0],"id":103,"left_children":[1,3,5,-1,-1,-1,-1],"loss_changes":[1.2461135E2,4.5125397E1,5.7542862E1,0E0,0E0,0E0,0E0],"parents":[2147483647,0,0,1,1,2,2],"right_children":[2,4,6,-1,-1,-1,-1],"split_conditions":[1.45E1,2.25E1,5.5E-1,1.7959087E-3,4.9846712E-3,7.7771384E-4,-1.9557008E-3],"split_indices":[51,80,77,0,0,0,0],"split_type":[0,0,0,0,0,0,0],"sum_hessian":[6.0431167E3,2.946794E3,3.0963225E3,2.4026726E3,5.441213E2,1.6647885E3,1.4315342E3],"tree_param":{"num_deleted":"0","num_feature":"104","num_nodes":"7","size_leaf_vector":"0"}},{"base_weights":[-9.058431E-2,-1.6680744E-1,1.7673954E-1,-2.821371E-2,-2.8731835E-1,2.1176207E-1,-2.0988567E-1],"categories":[],"categories_nodes":[],"categories_segments":[],"categories_sizes":[],"default_left":[1,1,1,0,0,0,0],"id":104,"left_children":[1,3,5,-1,-1,-1,-1],"loss_changes":[1.2313458E2,7.8519196E1,1.8201576E1,0E0,0E0,0E0,0E0],"parents":[2147483647,0,0,1,1,2,2],"right_children":[2,4,6,-1,-1,-1,-1],"split_conditions":[2.35E1,1.15E1,2.75E1,-2.821371E-4,-2.8731835E-3,2.1176205E-3,-2.0988567E-3],"split_indices":[51,80,81,0,0,0,0],"split_type":[0,0,0,0,0,0,0],"sum_hessian":[6.040594E3,4.700654E3,1.3399404E3,2.1868723E3,2.5137812E3,1.2290582E3,1.10882225E2],"tree_param":{"num_deleted":"0","num_feature":"104","num_nodes":"7","size_leaf_vector":"0"}},{"base_weights":[9.058429E-2,1.6680741E-1,-1.7673951E-1,2.8213672E-2,2.8731835E-1,-2.1176204E-1,2.098856E-1],"categories":[],"categories_nodes":[],"categories_segments":[],"categories_sizes":[],"default_left":[1,1,1,0,0,0,0],"id":105,"left_children":[1,3,5,-1,-1,-1,-1],"loss_changes":[1.23134544E2,7.851921E1,1.8201569E1,0E0,0E0,0E0,0E0],"parents":[2147483647,0,0,1,1,2,2],"right_children":[2,4,6,-1,-1,-1,-1],"split_conditions":[2.35E1,1.15E1,2.75E1,2.8213672E-4,2.8731835E-3,-2.1176203E-3,2.098856E-3],"split_indices":[51,80,81,0,0,0,0],"split_type":[0,0,0,0,0,0,0],"sum_hessian":[6.040594E3,4.700654E3,1.3399404E3,2.1868723E3,2.5137812E3,1.2290582E3,1.10882225E2],"tree_param":{"num_deleted":"0","num_feature":"104","num_nodes":"7","size_leaf_vector":"0"}},{"base_weights":[-8.971605E-2,-1.8299457E-1,1.2559626E-1,-1.0481372E-1,-3.8908342E-1,1.8044505E-1,-1.6145085E-1],"categories":[],"categories_nodes":[],"categories_segments":[],"categories_sizes":[],"default_left":[1,1,1,0,0,0,0],"id":106,"left_children":[1,3,5,-1,-1,-1,-1],"loss_changes":[1.21312904E2,6.785721E1,2.8778885E1,0E0,0E0,0E0,0E0],"parents":[2147483647,0,0,1,1,2,2],"right_children":[2,4,6,-1,-1,-1,-1],"split_conditions":[1.95E1,1.95E1,2.55E1,-1.0481372E-3,-3.890834E-3,1.8044504E-3,-1.6145085E-3],"split_indices":[28,80,103,0,0,0,0],"split_type":[0,0,0,0,0,0,0],"sum_hessian":[6.0381274E3,4.2130723E3,1.8250553E3,3.055472E3,1.1576005E3,1.5325819E3,2.9247342E2],"tree_param":{"num_deleted":"0","num_feature":"104","num_nodes":"7","size_leaf_vector":"0"}},{"base_weights":[8.971605E-2,1.8299457E-1,-1.2559626E-1,1.0481372E-1,3.8908342E-1,-1.8044505E-1,1.6145088E-1],"categories":[],"categories_nodes":[],"categories_segments":[],"categories_sizes":[],"default_left":[1,1,1,0,0,0,0],"id":107,"left_children":[1,3,5,-1,-1,-1,-1],"loss_changes":[1.21312904E2,6.785721E1,2.8778889E1,0E0,0E0,0E0,0E0],"parents":[2147483647,0,0,1,1,2,2],"right_children":[2,4,6,-1,-1,-1,-1],"split_conditions":[1.95E1,1.95E1,2.55E1,1.0481372E-3,3.890834E-3,-1.8044504E-3,1.6145087E-3],"split_indices":[28,80,103,0,0,0,0],"split_type":[0,0,0,0,0,0,0],"sum_hessian":[6.0381274E3,4.2130723E3,1.8250553E3,3.055472E3,1.1576005E3,1.5325819E3,2.9247342E2],"tree_param":{"num_deleted":"0","num_feature":"104","num_nodes":"7","size_leaf_vector":"0"}},{"base_weights":[-8.8857986E-2,-2.3328328E-1,4.8460294E-2,-2.9333603E-1,1.5981887E-2,-7.361211E-2,1.9519402E-1],"categories":[],"categories_nodes":[],"categories_segments":[],"categories_sizes":[],"default_left":[1,1,1,0,0,0,0],"id":108,"left_children":[1,3,5,-1,-1,-1,-1],"loss_changes":[1.1972978E2,4.4048386E1,5.5456818E1,0E0,0E0,0E0,0E0],"parents":[2147483647,0,0,1,1,2,2],"right_children":[2,4,6,-1,-1,-1,-1],"split_conditions":[1.45E1,5.05E0,5.245E-1,-2.9333602E-3,1.5981887E-4,-7.361211E-4,1.9519401E-3],"split_indices":[51,77,55,0,0,0,0],"split_type":[0,0,0,0,0,0,0],"sum_hessian":[6.03556E3,2.9413157E3,3.0942446E3,2.3701292E3,5.711864E2,1.6893334E3,1.4049113E3],"tree_param":{"num_deleted":"0","num_feature":"104","num_nodes":"7","size_leaf_vector":"0"}},{"base_weights":[8.885797E-2,2.3328325E-1,-4.8460297E-2,2.9333603E-1,-1.5981998E-2,7.3612124E-2,-1.9519405E-1],"categories":[],"categories_nodes":[],"categories_segments":[],"categories_sizes":[],"default_left":[1,1,1,0,0,0,0],"id":109,"left_children":[1,3,5,-1,-1,-1,-1],"loss_changes":[1.1972976E2,4.4048416E1,5.5456833E1,0E0,0E0,0E0,0E0],"parents":[2147483647,0,0,1,1,2,2],"right_children":[2,4,6,-1,-1,-1,-1],"split_conditions":[1.45E1,5.05E0,5.245E-1,2.9333602E-3,-1.5981997E-4,7.361212E-4,-1.9519405E-3],"split_indices":[51,77,55,0,0,0,0],"split_type":[0,0,0,0,0,0,0],"sum_hessian":[6.03556E3,2.9413157E3,3.0942446E3,2.3701292E3,5.711864E2,1.6893334E3,1.4049113E3],"tree_param":{"num_deleted":"0","num_feature":"104","num_nodes":"7","size_leaf_vector":"0"}},{"base_weights":[-8.800865E-2,-1.6265611E-1,1.7359665E-1,-2.6783379E-2,-2.8102678E-1,2.0796107E-1,-2.0575179E-1],"categories":[],"categories_nodes":[],"categories_segments":[],"categories_sizes":[],"default_left":[1,1,1,0,0,0,0],"id":110,"left_children":[1,3,5,-1,-1,-1,-1],"loss_changes":[1.1785962E2,7.5502426E1,1.751117E1,0E0,0E0,0E0,0E0],"parents":[2147483647,0,0,1,1,2,2],"right_children":[2,4,6,-1,-1,-1,-1],"split_conditions":[2.35E1,1.15E1,2.75E1,-2.678338E-4,-2.8102677E-3,2.0796107E-3,-2.0575179E-3],"split_indices":[51,80,81,0,0,0,0],"split_type":[0,0,0,0,0,0,0],"sum_hessian":[6.0329185E3,4.6939165E3,1.339002E3,2.185965E3,2.5079517E3,1.2281941E3,1.1080783E2],"tree_param":{"num_deleted":"0","num_feature":"104","num_nodes":"7","size_leaf_vector":"0"}},{"base_weights":[8.800863E-2,1.6265608E-1,-1.7359668E-1,2.6783332E-2,2.8102678E-1,-2.079611E-1,2.0575179E-1],"categories":[],"categories_nodes":[],"categories_segments":[],"categories_sizes":[],"default_left":[1,1,1,0,0,0,0],"id":111,"left_children":[1,3,5,-1,-1,-1,-1],"loss_changes":[1.1785965E2,7.5502464E1,1.7511173E1,0E0,0E0,0E0,0E0],"parents":[2147483647,0,0,1,1,2,2],"right_children":[2,4,6,-1,-1,-1,-1],"split_conditions":[2.35E1,1.15E1,2.75E1,2.6783333E-4,2.8102677E-3,-2.079611E-3,2.0575179E-3],"split_indices":[51,80,81,0,0,0,0],"split_type":[0,0,0,0,0,0,0],"sum_hessian":[6.0329185E3,4.6939165E3,1.339002E3,2.185965E3,2.5079517E3,1.2281941E3,1.1080783E2],"tree_param":{"num_deleted":"0","num_feature":"104","num_nodes":"7","size_leaf_vector":"0"}},{"base_weights":[-8.716596E-2,-2.2966674E-1,4.820245E-2,-1.7203005E-1,-4.8471516E-1,-7.444101E-2,1.907679E-1],"categories":[],"categories_nodes":[],"categories_segments":[],"categories_sizes":[],"default_left":[1,1,1,0,0,0,0],"id":112,"left_children":[1,3,5,-1,-1,-1,-1],"loss_changes":[1.163573E2,4.3112473E1,5.4110718E1,0E0,0E0,0E0,0E0],"parents":[2147483647,0,0,1,1,2,2],"right_children":[2,4,6,-1,-1,-1,-1],"split_conditions":[1.45E1,2.25E1,5.5E-1,-1.7203004E-3,-4.8471517E-3,-7.444101E-4,1.9076789E-3],"split_indices":[51,80,77,0,0,0,0],"split_type":[0,0,0,0,0,0,0],"sum_hessian":[6.0303945E3,2.9374634E3,3.092931E3,2.3973718E3,5.400916E2,1.6628899E3,1.430041E3],"tree_param":{"num_deleted":"0","num_feature":"104","num_nodes":"7","size_leaf_vector":"0"}},{"base_weights":[8.7165974E-2,2.2966677E-1,-4.820244E-2,1.7203006E-1,4.8471516E-1,7.444102E-2,-1.9076788E-1],"categories":[],"categories_nodes":[],"categories_segments":[],"categories_sizes":[],"default_left":[1,1,1,0,0,0,0],"id":113,"left_children":[1,3,5,-1,-1,-1,-1],"loss_changes":[1.16357315E2,4.3112442E1,5.4110714E1,0E0,0E0,0E0,0E0],"parents":[2147483647,0,0,1,1,2,2],"right_children":[2,4,6,-1,-1,-1,-1],"split_conditions":[1.45E1,2.25E1,5.5E-1,1.7203005E-3,4.8471517E-3,7.444102E-4,-1.9076788E-3],"split_indices":[51,80,77,0,0,0,0],"split_type":[0,0,0,0,0,0,0],"sum_hessian":[6.0303945E3,2.9374634E3,3.092931E3,2.3973718E3,5.400917E2,1.6628899E3,1.4300411E3],"tree_param":{"num_deleted":"0","num_feature":"104","num_nodes":"7","size_leaf_vector":"0"}},{"base_weights":[-8.633314E-2,-1.771709E-1,1.2308346E-1,-3.6522058E-1,-9.5132224E-2,2.8261822E-1,2.5745202E-2],"categories":[],"categories_nodes":[],"categories_segments":[],"categories_sizes":[],"default_left":[1,1,1,0,0,0,0],"id":114,"left_children":[1,3,5,-1,-1,-1,-1],"loss_changes":[1.1470694E2,6.48414E1,2.8325302E1,0E0,0E0,0E0,0E0],"parents":[2147483647,0,0,1,1,2,2],"right_children":[2,4,6,-1,-1,-1,-1],"split_conditions":[1.95E1,-1.75E0,-6.25E0,-3.6522057E-3,-9.513222E-4,2.8261822E-3,2.5745202E-4],"split_indices":[28,77,25,0,0,0,0],"split_type":[0,0,0,0,0,0,0],"sum_hessian":[6.027782E3,4.2042686E3,1.823514E3,1.2759879E3,2.9282805E3,6.902725E2,1.1332415E3],"tree_param":{"num_deleted":"0","num_feature":"104","num_nodes":"7","size_leaf_vector":"0"}},{"base_weights":[8.6333156E-2,1.7717092E-1,-1.2308345E-1,3.6522058E-1,9.513224E-2,-2.8261822E-1,-2.5745202E-2],"categories":[],"categories_nodes":[],"categories_segments":[],"categories_sizes":[],"default_left":[1,1,1,0,0,0,0],"id":115,"left_children":[1,3,5,-1,-1,-1,-1],"loss_changes":[1.14706924E2,6.4841415E1,2.83253E1,0E0,0E0,0E0,0E0],"parents":[2147483647,0,0,1,1,2,2],"right_children":[2,4,6,-1,-1,-1,-1],"split_conditions":[1.95E1,-1.75E0,-6.25E0,3.6522057E-3,9.513224E-4,-2.8261822E-3,-2.5745202E-4],"split_indices":[28,77,25,0,0,0,0],"split_type":[0,0,0,0,0,0,0],"sum_hessian":[6.027782E3,4.2042686E3,1.823514E3,1.2759878E3,2.9282805E3,6.902725E2,1.1332415E3],"tree_param":{"num_deleted":"0","num_feature":"104","num_nodes":"7","size_leaf_vector":"0"}},{"base_weights":[-8.550564E-2,-2.2596276E-1,4.779374E-2,-2.851002E-1,1.8776214E-2,-1.576732E-1,1.3113211E-1],"categories":[],"categories_nodes":[],"categories_segments":[],"categories_sizes":[],"default_left":[1,1,1,0,0,0,0],"id":116,"left_children":[1,3,5,-1,-1,-1,-1],"loss_changes":[1.1284044E2,4.2477722E1,5.2978916E1,0E0,0E0,0E0,0E0],"parents":[2147483647,0,0,1,1,2,2],"right_children":[2,4,6,-1,-1,-1,-1],"split_conditions":[1.45E1,5.05E0,-2.45E0,-2.851002E-3,1.8776214E-4,-1.5767319E-3,1.311321E-3],"split_indices":[51,77,77,0,0,0,0],"split_type":[0,0,0,0,0,0,0],"sum_hessian":[6.0253086E3,2.9335461E3,3.0917627E3,2.3625154E3,5.7103076E2,8.9190936E2,2.1998535E3],"tree_param":{"num_deleted":"0","num_feature":"104","num_nodes":"7","size_leaf_vector":"0"}},{"base_weights":[8.550568E-2,2.2596282E-1,-4.7793727E-2,2.8510028E-1,-1.8776214E-2,1.576732E-1,-1.311321E-1],"categories":[],"categories_nodes":[],"categories_segments":[],"categories_sizes":[],"default_left":[1,1,1,0,0,0,0],"id":117,"left_children":[1,3,5,-1,-1,-1,-1],"loss_changes":[1.128405E2,4.2477737E1,5.297891E1,0E0,0E0,0E0,0E0],"parents":[2147483647,0,0,1,1,2,2],"right_children":[2,4,6,-1,-1,-1,-1],"split_conditions":[1.45E1,5.05E0,-2.45E0,2.8510028E-3,-1.8776214E-4,1.5767319E-3,-1.3113209E-3],"split_indices":[51,77,77,0,0,0,0],"split_type":[0,0,0,0,0,0,0],"sum_hessian":[6.025309E3,2.9335461E3,3.0917627E3,2.3625154E3,5.7103076E2,8.9190936E2,2.1998535E3],"tree_param":{"num_deleted":"0","num_feature":"104","num_nodes":"7","size_leaf_vector":"0"}},{"base_weights":[-8.469012E-2,-1.829416E-1,1.03495285E-1,2.1911757E-2,-2.594266E-1,-1.23638056E-1,1.699209E-1],"categories":[],"categories_nodes":[],"categories_segments":[],"categories_sizes":[],"default_left":[1,1,1,0,0,0,0],"id":118,"left_children":[1,3,5,-1,-1,-1,-1],"loss_changes":[1.1139169E2,6.201686E1,3.1203785E1,0E0,0E0,0E0,0E0],"parents":[2147483647,0,0,1,1,2,2],"right_children":[2,4,6,-1,-1,-1,-1],"split_conditions":[1.85E1,7.5E0,3.725E-1,2.1911756E-4,-2.5942659E-3,-1.2363805E-3,1.699209E-3],"split_indices":[27,103,55,0,0,0,0],"split_type":[0,0,0,0,0,0,0],"sum_hessian":[6.02257E3,3.9567703E3,2.0657993E3,1.0758866E3,2.8808838E3,4.6724783E2,1.5985516E3],"tree_param":{"num_deleted":"0","num_feature":"104","num_nodes":"7","size_leaf_vector":"0"}},{"base_weights":[8.469012E-2,1.829416E-1,-1.0349529E-1,-2.1911776E-2,2.594266E-1,1.2363805E-1,-1.699209E-1],"categories":[],"categories_nodes":[],"categories_segments":[],"categories_sizes":[],"default_left":[1,1,1,0,0,0,0],"id":119,"left_children":[1,3,5,-1,-1,-1,-1],"loss_changes":[1.113917E2,6.2016876E1,3.1203785E1,0E0,0E0,0E0,0E0],"parents":[2147483647,0,0,1,1,2,2],"right_children":[2,4,6,-1,-1,-1,-1],"split_conditions":[1.85E1,7.5E0,3.725E-1,-2.1911775E-4,2.5942659E-3,1.2363804E-3,-1.699209E-3],"split_indices":[27,103,55,0,0,0,0],"split_type":[0,0,0,0,0,0,0],"sum_hessian":[6.02257E3,3.9567703E3,2.0657993E3,1.0758866E3,2.8808838E3,4.672478E2,1.5985515E3],"tree_param":{"num_deleted":"0","num_feature":"104","num_nodes":"7","size_leaf_vector":"0"}},{"base_weights":[-8.3880536E-2,-1.5610127E-1,1.6889141E-1,-3.4099293E-1,-7.34999E-2,2.024229E-1,-2.0113318E-1],"categories":[],"categories_nodes":[],"categories_segments":[],"categories_sizes":[],"default_left":[1,1,1,0,0,0,0],"id":120,"left_children":[1,3,5,-1,-1,-1,-1],"loss_changes":[1.09940926E2,7.150234E1,1.6647743E1,0E0,0E0,0E0,0E0],"parents":[2147483647,0,0,1,1,2,2],"right_children":[2,4,6,-1,-1,-1,-1],"split_conditions":[2.35E1,-1.75E0,2.75E1,-3.409929E-3,-7.34999E-4,2.024229E-3,-2.0113317E-3],"split_indices":[51,77,81,0,0,0,0],"split_type":[0,0,0,0,0,0,0],"sum_hessian":[6.0199424E3,4.682472E3,1.3374701E3,1.4449731E3,3.2374993E3,1.226755E3,1.107151E2],"tree_param":{"num_deleted":"0","num_feature":"104","num_nodes":"7","size_leaf_vector":"0"}},{"base_weights":[8.388053E-2,1.5610127E-1,-1.6889141E-1,3.409929E-1,7.34999E-2,-2.024229E-1,2.011332E-1],"categories":[],"categories_nodes":[],"categories_segments":[],"categories_sizes":[],"default_left":[1,1,1,0,0,0,0],"id":121,"left_children":[1,3,5,-1,-1,-1,-1],"loss_changes":[1.0994093E2,7.150233E1,1.6647747E1,0E0,0E0,0E0,0E0],"parents":[2147483647,0,0,1,1,2,2],"right_children":[2,4,6,-1,-1,-1,-1],"split_conditions":[2.35E1,-1.75E0,2.75E1,3.4099289E-3,7.34999E-4,-2.024229E-3,2.011332E-3],"split_indices":[51,77,81,0,0,0,0],"split_type":[0,0,0,0,0,0,0],"sum_hessian":[6.0199424E3,4.682472E3,1.3374701E3,1.4449731E3,3.2374993E3,1.226755E3,1.107151E2],"tree_param":{"num_deleted":"0","num_feature":"104","num_nodes":"7","size_leaf_vector":"0"}},{"base_weights":[-8.307783E-2,3.544296E-2,-2.3541534E-1,-1.4655745E-1,1.3060854E-1,-2.97433E-1,1.8660627E-2],"categories":[],"categories_nodes":[],"categories_segments":[],"categories_sizes":[],"default_left":[1,1,1,0,0,0,0],"id":122,"left_children":[1,3,5,-1,-1,-1,-1],"loss_changes":[1.0867172E2,5.866135E1,4.1504272E1,0E0,0E0,0E0,0E0],"parents":[2147483647,0,0,1,1,2,2],"right_children":[2,4,6,-1,-1,-1,-1],"split_conditions":[9.5E-1,-1.55E0,5.05E0,-1.4655745E-3,1.3060854E-3,-2.9743297E-3,1.8660627E-4],"split_indices":[25,77,77,0,0,0,0],"split_type":[0,0,0,0,0,0,0],"sum_hessian":[6.0174116E3,3.384775E3,2.6326367E3,1.1619849E3,2.22279E3,2.1159756E3,5.1666113E2],"tree_param":{"num_deleted":"0","num_feature":"104","num_nodes":"7","size_leaf_vector":"0"}},{"base_weights":[8.3077826E-2,-3.5442963E-2,2.3541532E-1,1.4655744E-1,-1.3060854E-1,2.9743296E-1,-1.8660545E-2],"categories":[],"categories_nodes":[],"categories_segments":[],"categories_sizes":[],"default_left":[1,1,1,0,0,0,0],"id":123,"left_children":[1,3,5,-1,-1,-1,-1],"loss_changes":[1.0867174E2,5.866135E1,4.1504227E1,0E0,0E0,0E0,0E0],"parents":[2147483647,0,0,1,1,2,2],"right_children":[2,4,6,-1,-1,-1,-1],"split_conditions":[9.5E-1,-1.55E0,5.05E0,1.4655744E-3,-1.3060854E-3,2.9743295E-3,-1.8660545E-4],"split_indices":[25,77,77,0,0,0,0],"split_type":[0,0,0,0,0,0,0],"sum_hessian":[6.0174116E3,3.384775E3,2.6326367E3,1.1619849E3,2.22279E3,2.1159756E3,5.1666113E2],"tree_param":{"num_deleted":"0","num_feature":"104","num_nodes":"7","size_leaf_vector":"0"}},{"base_weights":[-8.22849E-2,-1.5352854E-1,1.6694982E-1,-2.2705926E-2,-2.679965E-1,2.0000052E-1,-1.9780095E-1],"categories":[],"categories_nodes":[],"categories_segments":[],"categories_sizes":[],"default_left":[1,1,1,0,0,0,0],"id":124,"left_children":[1,3,5,-1,-1,-1,-1],"loss_changes":[1.0684305E2,7.006074E1,1.6167065E1,0E0,0E0,0E0,0E0],"parents":[2147483647,0,0,1,1,2,2],"right_children":[2,4,6,-1,-1,-1,-1],"split_conditions":[2.35E1,1.15E1,2.75E1,-2.2705925E-4,-2.6799648E-3,2.0000052E-3,-1.9780095E-3],"split_indices":[51,80,81,0,0,0,0],"split_type":[0,0,0,0,0,0,0],"sum_hessian":[6.014718E3,4.6779204E3,1.3367975E3,2.18357E3,2.49435E3,1.226146E3,1.1065152E2],"tree_param":{"num_deleted":"0","num_feature":"104","num_nodes":"7","size_leaf_vector":"0"}},{"base_weights":[8.228493E-2,1.5352856E-1,-1.6694981E-1,2.2705965E-2,2.679965E-1,-2.0000051E-1,1.9780096E-1],"categories":[],"categories_nodes":[],"categories_segments":[],"categories_sizes":[],"default_left":[1,1,1,0,0,0,0],"id":125,"left_children":[1,3,5,-1,-1,-1,-1],"loss_changes":[1.0684303E2,7.006073E1,1.6167065E1,0E0,0E0,0E0,0E0],"parents":[2147483647,0,0,1,1,2,2],"right_children":[2,4,6,-1,-1,-1,-1],"split_conditions":[2.35E1,1.15E1,2.75E1,2.2705965E-4,2.6799648E-3,-2.000005E-3,1.9780097E-3],"split_indices":[51,80,81,0,0,0,0],"split_type":[0,0,0,0,0,0,0],"sum_hessian":[6.014718E3,4.6779204E3,1.3367975E3,2.18357E3,2.49435E3,1.2261459E3,1.1065152E2],"tree_param":{"num_deleted":"0","num_feature":"104","num_nodes":"7","size_leaf_vector":"0"}},{"base_weights":[-8.149854E-2,3.5405125E-2,-2.3189913E-1,-1.4407095E-1,1.292121E-1,-2.9318067E-1,1.8722197E-2],"categories":[],"categories_nodes":[],"categories_segments":[],"categories_sizes":[],"default_left":[1,1,1,0,0,0,0],"id":126,"left_children":[1,3,5,-1,-1,-1,-1],"loss_changes":[1.057327E2,5.6994965E1,4.0396957E1,0E0,0E0,0E0,0E0],"parents":[2147483647,0,0,1,1,2,2],"right_children":[2,4,6,-1,-1,-1,-1],"split_conditions":[9.5E-1,-1.55E0,5.05E0,-1.4407095E-3,1.2921209E-3,-2.9318067E-3,1.8722197E-4],"split_indices":[25,77,77,0,0,0,0],"split_type":[0,0,0,0,0,0,0],"sum_hessian":[6.0120933E3,3.383176E3,2.6289172E3,1.1611229E3,2.2220532E3,2.1122607E3,5.166566E2],"tree_param":{"num_deleted":"0","num_feature":"104","num_nodes":"7","size_leaf_vector":"0"}},{"base_weights":[8.149854E-2,-3.5405125E-2,2.3189913E-1,1.4407095E-1,-1.292121E-1,2.9318067E-1,-1.8722195E-2],"categories":[],"categories_nodes":[],"categories_segments":[],"categories_sizes":[],"default_left":[1,1,1,0,0,0,0],"id":127,"left_children":[1,3,5,-1,-1,-1,-1],"loss_changes":[1.0573271E2,5.6994965E1,4.0396957E1,0E0,0E0,0E0,0E0],"parents":[2147483647,0,0,1,1,2,2],"right_children":[2,4,6,-1,-1,-1,-1],"split_conditions":[9.5E-1,-1.55E0,5.05E0,1.4407095E-3,-1.2921209E-3,2.9318067E-3,-1.8722194E-4],"split_indices":[25,77,77,0,0,0,0],"split_type":[0,0,0,0,0,0,0],"sum_hessian":[6.0120933E3,3.3831763E3,2.6289172E3,1.1611229E3,2.2220532E3,2.1122607E3,5.166566E2],"tree_param":{"num_deleted":"0","num_feature":"104","num_nodes":"7","size_leaf_vector":"0"}},{"base_weights":[-8.072112E-2,-1.6755466E-1,1.1902357E-1,-9.365499E-2,-3.640897E-1,2.7481484E-1,2.402018E-2],"categories":[],"categories_nodes":[],"categories_segments":[],"categories_sizes":[],"default_left":[1,1,1,0,0,0,0],"id":128,"left_children":[1,3,5,-1,-1,-1,-1],